0.0 0.001 -0.001 0.001 0.0 0.0 0.001 0.0 0.0 0.001 -0.001 -0.001 -0.001 0.0 0.001 0.0 0.001 0.0 0.0 0.00000000004749745128457272 0.003000000142492354 0.004000000142492354 0.0030000000949949026 0.0020000000949949026 0.0030000000949949026 0.0020000000949949026 0.0030000000949949026 0.0030000000949949026 0.0010000000474974513 0.001 0.0 0.0 -0.0010000000949949026 -0.003000000142492354 -0.0010000000949949026 -0.0010000000949949026 -0.0030000000949949026 -0.0030000000949949026 -0.0020000000949949026 -0.0010000000474974513 -0.00000000004749745128457272 -0.0020000000474974513 0.0 -0.001 0.0 -0.001 -0.001 0.0 0.0 -0.001 0.0 0.001 0.001 0.0 0.0 -0.001 0.0 -0.001 0.001 0.001 0.001 0.0 0.001 0.0 -0.001 -0.001 0.0 -0.0010000000474974513 -0.0010000000474974513 0.0030000000949949026 0.0030000000949949026 0.0020000000949949026 0.0020000000949949026 0.0030000000949949026 0.0020000000949949026 0.0010000000949949026 0.0020000000949949026 0.0010000000949949026 0.0020000000949949026 0.0020000000474974513 0.0 0.0 -0.0010000000474974513 -0.0010000000474974513 -0.0020000000949949026 -0.0010000000949949026 -0.0010000000949949026 -0.0020000000949949026 -0.0020000000949949026 -0.0020000000949949026 -0.00000000004749745128457272 -0.0020000000474974513 -0.0010000000474974513 -0.0010000000474974513 0.001 0.0 -0.001 0.0 0.0 0.0 0.0 0.001 0.0 0.001 -0.001 0.001 0.0 0.0 -0.001 0.0 0.0 0.0 0.001 0.001 0.0 -0.0020000000949949026 -0.0020000000949949026 -0.0030000000949949026 0.0 0.00000000004749745128457272 0.0010000000474974513 0.0030000000949949026 0.0030000000949949026 0.0030000000949949026 0.0020000000949949026 0.0020000000949949026 0.0030000000949949026 0.0020000000949949026 0.0020000000949949026 0.0030000000949949026 0.00000000004749745128457272 -0.001 -0.0010000000474974513 -0.0020000000474974513 -0.001 0.0 -0.0020000000949949026 -0.0020000000949949026 -0.0030000000949949026 -0.0020000000949949026 -0.0020000000949949026 -0.0020000000474974513 -0.00000000004749745128457272 -0.0020000000474974513 -0.0010000000474974513 -0.001 -0.001 0.0 0.0 -0.001 -0.001 -0.001 0.0 0.001 0.0 -0.001 -0.001 -0.001 0.001 0.001 -0.001 0.001 0.0 0.0 -0.0020000000949949026 -0.0010000000949949026 -0.004000000142492354 0.0 0.0010000000474974513 0.0020000000474974513 0.0010000000474974513 0.0010000000474974513 0.0010000000949949026 0.0030000000949949026 0.0030000000949949026 0.0030000000949949026 0.0010000000949949026 0.0020000000949949026 0.0020000000949949026 0.0020000000949949026 0.0010000000949949026 0.0 0.0 -0.0020000000474974513 0.001 0.0 0.0 0.0 -0.0020000000949949026 -0.0020000000949949026 -0.0030000000949949026 -0.0010000000474974513 -0.00000000004749745128457272 -0.0010000000474974513 -0.0020000000474974513 0.001 0.001 0.0 -0.001 0.0 -0.001 0.0 0.0 0.001 -0.001 0.0 -0.001 0.001 0.0 0.001 0.0 0.0 0.001 -0.0010000000949949026 -0.003000000142492354 -0.0020000000474974513 0.001 0.00000000004749745128457272 0.00000000004749745128457272 0.0010000000474974513 0.0010000000474974513 0.0020000000474974513 0.0020000000949949026 0.0030000000949949026 0.0030000000949949026 0.0020000000949949026 0.0020000000949949026 0.0020000000949949026 0.0030000000949949026 0.0010000000949949026 0.0020000000949949026 0.0020000000474974513 0.0 0.001 0.0 -0.001 0.0 0.0 0.0 -0.0010000000949949026 -0.0020000000949949026 -0.0020000000949949026 -0.0020000000474974513 -0.00000000004749745128457272 -0.0020000000474974513 -0.0010000000474974513 0.0 -0.001 0.0 -0.001 0.0 0.0 0.0 0.001 0.0 0.0 0.001 0.0 0.0 0.0 0.0 0.0 -0.00000000004749745128457272 -0.002000000142492354 -0.0010000000474974513 -0.001 0.00000000004749745128457272 0.0010000000474974513 0.0020000000474974513 0.0020000000474974513 0.00000000004749745128457272 0.00000000004749745128457272 0.0010000000474974513 0.0030000000949949026 0.0020000000949949026 0.0030000000949949026 0.0030000000949949026 0.0010000000949949026 0.0020000000949949026 0.0020000000949949026 0.0020000000949949026 0.0010000000474974513 0.0010000000474974513 0.0010000000474974513 0.00000000004749745128457272 0.0 0.0 0.001 0.0 -0.001 -0.0020000000949949026 -0.0020000000949949026 -0.0030000000949949026 -0.00000000004749745128457272 -0.00000000004749745128457272 -0.0020000000474974513 -0.00000000004749745128457272 0.0 -0.001 0.0 0.0 -0.001 -0.001 0.001 -0.001 0.0 0.001 0.0 0.0 -0.001 -0.001 -0.0010000000949949026 -0.003000000142492354 -0.0010000000474974513 0.0 -0.001 0.0020000000474974513 0.0010000000474974513 0.0010000000474974513 0.0020000000474974513 0.00000000004749745128457272 0.0010000000474974513 0.0010000000474974513 0.0010000000474974513 0.0010000000949949026 0.0 0.0010000000949949026 0.0010000000949949026 0.004000000142492354 0.004000000142492354 0.0030000000949949026 0.0010000000949949026 0.0030000000949949026 0.003000000142492354 0.0010000000474974513 0.00000000004749745128457272 0.0 0.001 0.0 0.0 -0.001 0.0 -0.0030000000949949026 -0.0020000000949949026 -0.0020000000474974513 -0.0010000000474974513 -0.0020000000474974513 -0.0010000000474974513 -0.001 0.0 0.001 0.001 -0.001 0.0 -0.001 0.0 0.001 0.0 0.0 -0.0010000000474974513 -0.0030000000949949026 -0.002000000142492354 -0.0020000000474974513 -0.001 0.0 0.0010000000474974513 0.00000000004749745128457272 0.0010000000474974513 0.0020000000474974513 0.0010000000474974513 0.0020000000474974513 0.0010000000474974513 0.00000000004749745128457272 0.0010000000474974513 -0.0010000000474974513 0.0 0.0020000000474974513 0.0010000000474974513 0.003000000142492354 0.0020000000949949026 0.003000000142492354 0.003000000142492354 0.003000000142492354 0.002000000142492354 0.004000000142492354 0.0030000000949949026 0.0020000000949949026 0.0010000000474974513 0.001 0.0 0.001 -0.001 -0.001 -0.0010000000949949026 -0.0030000000949949026 -0.0020000000949949026 -0.0010000000474974513 -0.0020000000474974513 0.0 0.0 0.0 -0.001 -0.001 -0.001 -0.001 0.0 -0.001 -0.001 -0.0010000000474974513 -0.0010000000474974513 -0.002000000142492354 -0.0010000000474974513 0.0 -0.0010000000474974513 0.0010000000474974513 0.0010000000474974513 0.00000000004749745128457272 0.0020000000474974513 0.00000000004749745128457272 0.0010000000474974513 0.0020000000474974513 0.0010000000949949026 0.0030000000949949026 -0.0010000000474974513 -0.0020000000949949026 -0.001 0.00000000004749745128457272 0.001 -0.001 -0.001 0.0020000000949949026 0.003000000142492354 0.003000000142492354 0.004000000142492354 0.004000000142492354 0.002000000142492354 0.0030000000949949026 0.0020000000949949026 0.0010000000474974513 0.0 0.0 0.0 0.0 -0.0030000000949949026 -0.0010000000949949026 -0.0030000000949949026 -0.0010000000949949026 -0.0020000000474974513 0.001 0.0 0.0 -0.001 0.0 0.0 0.0 0.001 0.0 -0.0020000000474974513 -0.0010000000474974513 -0.003000000142492354 -0.0010000000474974513 -0.00000000004749745128457272 -0.001 0.001 0.00000000004749745128457272 0.0010000000474974513 0.0010000000474974513 0.0010000000474974513 0.00000000004749745128457272 0.0020000000949949026 0.0030000000949949026 0.0030000000949949026 0.00000000004749745128457272 -0.0030000000949949026 -0.0030000000949949026 -0.0020000000949949026 -0.0020000000474974513 0.0 -0.001 0.0 0.0010000000474974513 0.0010000000474974513 0.002000000142492354 0.004000000142492354 0.003000000142492354 0.004000000142492354 0.003000000142492354 0.0020000000949949026 0.0020000000949949026 0.0010000000474974513 0.0 0.0 0.0 0.001 -0.0030000000949949026 -0.0020000000949949026 -0.0030000000949949026 -0.0020000000949949026 -0.0010000000474974513 0.001 0.0 0.0 0.001 0.0 0.0 -0.001 -0.00000000004749745128457272 -0.0010000000474974513 -0.004000000142492354 -0.0020000000474974513 -0.00000000004749745128457272 0.0 0.001 0.0010000000474974513 0.00000000004749745128457272 0.00000000004749745128457272 0.00000000004749745128457272 0.00000000004749745128457272 0.0020000000949949026 0.0030000000949949026 0.002000000142492354 0.0010000000474974513 -0.0010000000474974513 -0.0010000000949949026 -0.0030000000949949026 -0.0030000000949949026 -0.0020000000949949026 -0.0010000000474974513 -0.0010000000474974513 -0.001 0.00000000004749745128457272 0.0010000000474974513 0.0010000000474974513 0.002000000142492354 0.003000000142492354 0.003000000142492354 0.004000000142492354 0.0010000000949949026 0.0020000000949949026 0.0010000000474974513 0.0 0.0 -0.001 0.0 0.001 -0.0020000000949949026 -0.0020000000949949026 -0.0020000000949949026 -0.0020000000949949026 0.001 0.001 0.0 0.0 0.001 -0.001 -0.0010000000474974513 -0.0010000000474974513 -0.003000000142492354 -0.0010000000474974513 -0.0020000000474974513 0.0 -0.001 0.0 0.0010000000474974513 0.0020000000474974513 0.0010000000474974513 0.0010000000474974513 0.0020000000949949026 0.003000000142492354 0.00000000004749745128457272 0.001 0.001 -0.0020000000949949026 -0.0030000000949949026 -0.0030000000949949026 -0.0020000000949949026 -0.0020000000949949026 -0.0010000000949949026 -0.0020000000474974513 -0.0010000000474974513 0.0010000000474974513 0.0010000000474974513 0.0010000000474974513 0.0020000000474974513 0.00000000004749745128457272 0.004000000142492354 0.003000000142492354 0.004000000189989805 0.003000000142492354 0.0020000000949949026 0.00000000004749745128457272 -0.001 -0.001 0.0 -0.001 -0.001 -0.0010000000949949026 -0.0020000000949949026 -0.0020000000949949026 0.0 0.0 0.001 0.001 0.001 0.0 -0.0020000000949949026 -0.0010000000949949026 -0.0010000000474974513 -0.0010000000474974513 0.0 0.0 0.001 0.00000000004749745128457272 0.0010000000474974513 0.00000000004749745128457272 0.0020000000474974513 0.0030000000949949026 0.004000000189989805 0.0020000000949949026 0.0 -0.001 -0.0010000000474974513 -0.0020000000949949026 -0.0020000000949949026 -0.0020000000949949026 -0.0030000000949949026 -0.0020000000949949026 -0.0030000000949949026 -0.0010000000474974513 -0.0020000000474974513 0.0 0.00000000004749745128457272 0.0010000000474974513 0.00000000004749745128457272 0.0010000000474974513 0.0010000000474974513 0.004000000189989805 0.004000000189989805 0.004000000189989805 0.004000000142492354 0.0030000000949949026 0.0 0.0 0.0 0.0 0.0 -0.0020000000949949026 -0.0020000000949949026 -0.0020000000949949026 -0.0020000000949949026 0.001 -0.001 0.0 -0.001 -0.0020000000949949026 -0.0030000000949949026 0.001 -0.00000000004749745128457272 0.0 0.0 0.0 0.0010000000474974513 0.0010000000474974513 0.0020000000474974513 0.0010000000474974513 0.0030000000949949026 0.004000000189989805 0.0010000000949949026 0.0020000000949949026 -0.001 0.001 -0.00000000004749745128457272 -0.0020000000949949026 -0.003000000142492354 -0.002000000142492354 -0.002000000142492354 -0.004000000142492354 -0.003000000142492354 -0.004000000142492354 -0.0010000000949949026 -0.0010000000474974513 -0.00000000004749745128457272 0.0 0.0 0.0010000000474974513 0.0010000000474974513 0.00000000004749745128457272 0.005000000189989805 0.005000000189989805 0.004000000189989805 0.004000000142492354 0.0020000000474974513 0.0 0.001 0.001 0.0 0.0 -0.0030000000949949026 -0.0030000000949949026 -0.0030000000949949026 -0.001 0.0 0.0 -0.00000000004749745128457272 -0.0020000000949949026 0.0 -0.00000000004749745128457272 0.0 -0.001 0.001 0.00000000004749745128457272 0.0010000000474974513 0.0010000000474974513 0.0020000000949949026 0.0020000000949949026 0.005000000189989805 0.0020000000949949026 0.0020000000949949026 0.0010000000474974513 0.0010000000474974513 -0.0030000000949949026 -0.003000000142492354 -0.004000000142492354 -0.003000000142492354 -0.002000000142492354 -0.002000000142492354 -0.003000000142492354 -0.003000000142492354 -0.003000000142492354 -0.0020000000949949026 -0.0010000000474974513 -0.0010000000474974513 -0.001 0.0020000000474974513 0.0010000000474974513 0.0020000000474974513 0.0010000000474974513 0.00000000004749745128457272 0.003000000142492354 0.005000000189989805 0.005000000189989805 0.002000000142492354 0.001 0.0 -0.001 0.001 -0.001 0.0 -0.0020000000949949026 -0.0020000000949949026 -0.001 0.0 -0.0010000000474974513 -0.0010000000949949026 -0.001 -0.0010000000474974513 -0.0020000000474974513 0.0 0.0010000000474974513 0.0020000000474974513 0.0020000000474974513 0.0020000000474974513 0.0020000000949949026 0.0020000000949949026 0.0030000000949949026 0.0020000000949949026 0.0030000000949949026 0.0020000000474974513 0.001 0.001 -0.0020000000949949026 -0.003000000142492354 -0.003000000142492354 -0.004000000142492354 -0.002000000142492354 -0.003000000142492354 -0.003000000142492354 -0.002000000142492354 -0.004000000142492354 -0.0020000000949949026 -0.0030000000949949026 0.0 0.0 0.0010000000474974513 0.0010000000474974513 0.0010000000474974513 0.00000000004749745128457272 0.0010000000474974513 0.002000000142492354 0.003000000142492354 0.004000000142492354 0.003000000189989805 0.0030000000949949026 0.0010000000474974513 -0.001 0.001 0.0 0.0 -0.001 -0.0010000000949949026 0.0 -0.00000000004749745128457272 -0.0010000000949949026 0.0 0.001 -0.001 0.0 0.00000000004749745128457272 0.0010000000474974513 0.0010000000474974513 0.00000000004749745128457272 0.0020000000474974513 0.0020000000949949026 0.0020000000949949026 0.0020000000949949026 0.0020000000949949026 0.0 0.0 0.0 -0.0010000000474974513 -0.00000000004749745128457272 -0.004000000142492354 -0.002000000142492354 -0.003000000142492354 -0.003000000142492354 -0.004000000142492354 -0.003000000142492354 -0.003000000142492354 -0.002000000142492354 -0.0020000000949949026 -0.00000000004749745128457272 -0.0010000000474974513 -0.001 0.001 0.0010000000474974513 0.0010000000474974513 0.0010000000474974513 0.00000000004749745128457272 0.0010000000474974513 0.003000000142492354 0.002000000142492354 0.004000000142492354 0.004000000189989805 0.0010000000474974513 0.0010000000474974513 0.0010000000474974513 0.0 -0.001 -0.001 -0.0030000000949949026 -0.00000000004749745128457272 -0.0010000000474974513 0.0 0.001 0.001 -0.001 0.0020000000474974513 0.00000000004749745128457272 0.0020000000474974513 0.0020000000474974513 0.00000000004749745128457272 0.0020000000949949026 0.002000000142492354 0.00000000004749745128457272 0.00000000004749745128457272 0.0 0.0 0.0 -0.0010000000474974513 -0.0010000000474974513 -0.0020000000949949026 -0.0030000000949949026 -0.004000000142492354 -0.003000000142492354 -0.003000000142492354 -0.003000000142492354 -0.003000000142492354 -0.003000000142492354 -0.003000000142492354 -0.0010000000949949026 -0.00000000004749745128457272 -0.0010000000474974513 -0.0020000000474974513 -0.001 0.00000000004749745128457272 0.0010000000474974513 0.0010000000474974513 0.0020000000474974513 0.0010000000474974513 0.00000000004749745128457272 0.002000000142492354 0.003000000142492354 0.003000000142492354 0.0020000000474974513 0.0010000000474974513 0.0020000000474974513 0.0020000000474974513 0.0010000000474974513 0.00000000004749745128457272 -0.0020000000949949026 -0.00000000004749745128457272 0.00000000004749745128457272 0.0 -0.001 0.00000000004749745128457272 0.0010000000474974513 0.0010000000474974513 0.0010000000474974513 0.00000000004749745128457272 0.0020000000474974513 0.0020000000474974513 0.003000000142492354 0.00000000004749745128457272 0.0010000000474974513 0.0 0.001 0.001 -0.0020000000474974513 -0.0020000000474974513 -0.00000000004749745128457272 -0.0020000000949949026 -0.0020000000949949026 -0.003000000142492354 -0.004000000142492354 -0.002000000142492354 -0.002000000142492354 -0.004000000142492354 -0.002000000142492354 -0.0020000000949949026 -0.0020000000474974513 -0.0020000000474974513 -0.0020000000474974513 -0.0010000000474974513 -0.0020000000474974513 0.001 0.00000000004749745128457272 0.00000000004749745128457272 0.0010000000474974513 0.0020000000474974513 0.0020000000474974513 0.003000000142492354 0.0020000000949949026 0.0020000000949949026 0.00000000004749745128457272 0.0030000000949949026 0.0020000000474974513 0.0020000000474974513 0.0010000000474974513 0.00000000004749745128457272 0.00000000004749745128457272 0.0010000000474974513 0.0 0.00000000004749745128457272 0.0010000000474974513 0.0020000000474974513 0.0010000000474974513 0.0020000000474974513 0.0010000000474974513 0.00000000004749745128457272 0.0020000000949949026 0.003000000142492354 0.0010000000474974513 0.0020000000949949026 0.0010000000474974513 0.001 0.001 -0.0010000000474974513 -0.00000000004749745128457272 -0.0020000000474974513 -0.0020000000474974513 -0.0010000000949949026 -0.0020000000949949026 -0.0020000000949949026 -0.004000000142492354 -0.004000000142492354 -0.002000000142492354 -0.004000000142492354 -0.004000000142492354 -0.0020000000949949026 -0.0020000000949949026 -0.0020000000949949026 -0.0030000000949949026 -0.0010000000949949026 -0.0030000000949949026 -0.0020000000949949026 0.001 0.0010000000474974513 0.00000000004749745128457272 0.0010000000474974513 0.0020000000474974513 0.0 0.0020000000949949026 0.0020000000949949026 0.0010000000474974513 0.0010000000474974513 0.0010000000474974513 0.0010000000474974513 0.0010000000474974513 0.0020000000474974513 0.0010000000474974513 0.0010000000474974513 0.0010000000474974513 0.00000000004749745128457272 0.00000000004749745128457272 0.0020000000474974513 0.0010000000474974513 0.0010000000474974513 0.0010000000474974513 0.00000000004749745128457272 0.004000000142492354 0.00000000004749745128457272 0.0010000000474974513 0.0010000000474974513 0.001 0.0 -0.00000000004749745128457272 -0.0020000000474974513 -0.0010000000474974513 -0.0010000000474974513 -0.0010000000474974513 -0.0030000000949949026 -0.0030000000949949026 -0.0030000000949949026 -0.0010000000949949026 -0.0020000000949949026 -0.0010000000949949026 -0.0020000000949949026 -0.0010000000474974513 -0.0020000000474974513 -0.0010000000474974513 -0.00000000004749745128457272 -0.0010000000474974513 -0.0020000000474974513 -0.0020000000949949026 -0.0020000000949949026 -0.0020000000949949026 0.0010000000474974513 0.0020000000474974513 0.0010000000474974513 -0.001 -0.001 -0.001 0.0010000000949949026 0.00000000004749745128457272 0.0010000000474974513 0.0020000000474974513 0.00000000004749745128457272 0.00000000004749745128457272 0.00000000004749745128457272 0.0010000000474974513 0.0010000000474974513 0.0010000000949949026 0.00000000004749745128457272 0.0010000000474974513 0.00000000004749745128457272 0.0020000000474974513 0.0020000000474974513 0.00000000004749745128457272 0.0020000000474974513 0.0030000000949949026 0.0010000000474974513 0.0010000000474974513 0.001 0.001 -0.00000000004749745128457272 -0.0010000000474974513 -0.0010000000474974513 -0.0010000000474974513 -0.0020000000474974513 -0.0030000000949949026 -0.0010000000949949026 -0.0020000000949949026 -0.0010000000949949026 -0.0020000000949949026 -0.0010000000474974513 -0.0010000000474974513 -0.0010000000474974513 -0.0010000000474974513 -0.0010000000474974513 -0.00000000004749745128457272 -0.0010000000474974513 -0.0010000000474974513 -0.0010000000474974513 -0.0010000000474974513 -0.0020000000474974513 -0.0020000000949949026 -0.0010000000474974513 0.0010000000474974513 -0.001 -0.001 0.001 0.0 0.0030000000949949026 0.0010000000474974513 0.0010000000474974513 0.00000000004749745128457272 0.0010000000949949026 0.00000000004749745128457272 0.0020000000474974513 0.0010000000474974513 0.0010000000949949026 0.0010000000474974513 0.0010000000474974513 0.0020000000474974513 0.00000000004749745128457272 0.0010000000474974513 0.00000000004749745128457272 0.0010000000474974513 0.0020000000474974513 0.0 0.0010000000474974513 0.001 -0.00000000004749745128457272 -0.0010000000474974513 -0.0010000000474974513 -0.0010000000474974513 -0.0010000000474974513 -0.0010000000474974513 -0.0020000000474974513 -0.0010000000949949026 -0.0020000000949949026 -0.0020000000949949026 -0.0010000000474974513 -0.00000000004749745128457272 -0.0010000000474974513 -0.00000000004749745128457272 -0.00000000004749745128457272 -0.00000000004749745128457272 -0.0020000000474974513 -0.0010000000474974513 -0.0020000000474974513 -0.0010000000474974513 -0.0020000000474974513 -0.0010000000474974513 -0.0010000000474974513 -0.0010000000474974513 0.0 -0.0030000000949949026 -0.0020000000474974513 -0.0010000000474974513 -0.001 0.0 0.0010000000949949026 0.0010000000474974513 0.0010000000474974513 0.0010000000474974513 0.00000000004749745128457272 0.0030000000949949026 0.0010000000474974513 0.0010000000949949026 0.003000000142492354 0.0010000000474974513 0.0010000000474974513 0.00000000004749745128457272 0.0010000000474974513 0.0010000000474974513 0.0010000000474974513 0.0010000000474974513 -0.001 -0.0010000000474974513 -0.001 -0.00000000004749745128457272 -0.0010000000474974513 -0.0020000000474974513 -0.0020000000474974513 -0.00000000004749745128457272 -0.00000000004749745128457272 -0.0010000000474974513 -0.0020000000474974513 -0.0020000000949949026 -0.0020000000949949026 -0.0020000000474974513 -0.0010000000474974513 -0.0010000000474974513 -0.00000000004749745128457272 -0.00000000004749745128457272 -0.0010000000474974513 -0.0020000000474974513 -0.0010000000474974513 -0.0020000000474974513 -0.0020000000474974513 -0.0020000000474974513 -0.0010000000474974513 -0.0010000000474974513 -0.0010000000474974513 -0.0010000000474974513 -0.0010000000474974513 -0.0010000000474974513 -0.0010000000474974513 -0.0020000000474974513 -0.00000000004749745128457272 -0.00000000004749745128457272 -0.0020000000474974513 0.0020000000474974513 0.0020000000474974513 0.0010000000474974513 0.0010000000474974513 0.00000000004749745128457272 0.003000000142492354 0.0020000000949949026 0.0020000000949949026 0.0020000000949949026 0.00000000004749745128457272 0.0010000000474974513 0.0020000000474974513 0.0020000000474974513 -0.0020000000474974513 -0.001 -0.00000000004749745128457272 -0.0010000000474974513 -0.00000000004749745128457272 -0.0020000000949949026 -0.0010000000474974513 -0.0010000000474974513 -0.0010000000474974513 -0.0020000000474974513 -0.00000000004749745128457272 -0.00000000004749745128457272 -0.0030000000949949026 -0.0010000000474974513 -0.0010000000474974513 -0.00000000004749745128457272 -0.0020000000474974513 -0.0010000000474974513 -0.0010000000474974513 -0.0020000000474974513 -0.0010000000474974513 -0.0010000000474974513 -0.0010000000474974513 -0.00000000004749745128457272 -0.0020000000474974513 -0.0010000000474974513 -0.0010000000474974513 -0.0020000000474974513 -0.0010000000474974513 -0.0030000000949949026 -0.0010000000474974513 -0.00000000004749745128457272 -0.0020000000949949026 -0.0020000000474974513 -0.0010000000474974513 -0.0020000000474974513 -0.0020000000949949026 -0.0030000000949949026 0.00000000004749745128457272 0.00000000004749745128457272 0.0010000000474974513 0.0020000000949949026 0.004000000142492354 0.004000000142492354 0.0020000000949949026 0.0020000000949949026 0.0010000000949949026 0.00000000004749745128457272 0.0010000000474974513 0.00000000004749745128457272 -0.00000000004749745128457272 -0.00000000004749745128457272 -0.0020000000949949026 -0.0010000000474974513 -0.00000000004749745128457272 -0.0020000000949949026 -0.0030000000949949026 -0.00000000004749745128457272 -0.0010000000474974513 -0.0020000000474974513 -0.0010000000474974513 -0.00000000004749745128457272 -0.0010000000474974513 -0.0010000000474974513 -0.00000000004749745128457272 -0.0010000000474974513 -0.0010000000474974513 -0.00000000004749745128457272 -0.0010000000474974513 -0.0010000000474974513 -0.0010000000474974513 -0.0010000000474974513 -0.0020000000474974513 -0.0010000000474974513 -0.0010000000474974513 -0.00000000004749745128457272 -0.0010000000474974513 -0.0010000000474974513 -0.0020000000949949026 -0.0030000000949949026 -0.0010000000474974513 -0.0010000000474974513 -0.0020000000474974513 -0.0030000000949949026 -0.0010000000474974513 -0.0010000000474974513 -0.0030000000949949026 -0.0010000000949949026 0.0010000000474974513 0.00000000004749745128457272 0.0020000000949949026 0.0010000000949949026 0.004000000142492354 0.003000000142492354 0.0010000000949949026 0.00000000004749745128457272 0.0010000000949949026 0.00000000004749745128457272 0.0010000000474974513 0.00000000004749745128457272 -0.0020000000949949026 -0.0030000000949949026 -0.0010000000474974513 -0.00000000004749745128457272 -0.0010000000474974513 -0.0020000000949949026 -0.0020000000949949026 -0.0010000000474974513 -0.0010000000474974513 -0.0020000000474974513 -0.00000000004749745128457272 -0.00000000004749745128457272 -0.0020000000949949026 -0.0020000000474974513 -0.0020000000474974513 -0.0010000000474974513 -0.0020000000474974513 -0.0010000000474974513 -0.0020000000474974513 -0.0020000000474974513 -0.00000000004749745128457272 -0.0010000000474974513 -0.00000000004749745128457272 -0.0010000000474974513 -0.0010000000474974513 -0.0010000000474974513 -0.00000000004749745128457272 -0.0010000000949949026 -0.0030000000949949026 -0.0020000000949949026 -0.0010000000474974513 -0.00000000004749745128457272 -0.0010000000474974513 -0.0020000000474974513 -0.0030000000949949026 -0.0020000000474974513 -0.0010000000949949026 -0.0010000000949949026 0.0030000000949949026 0.0020000000949949026 0.0030000000949949026 0.0030000000949949026 0.0020000000949949026 0.004000000142492354 0.0010000000949949026 0.0020000000949949026 0.0030000000949949026 0.0010000000949949026 0.0010000000474974513 -0.001 -0.003000000142492354 -0.0020000000949949026 -0.0010000000474974513 -0.00000000004749745128457272 -0.0010000000474974513 -0.0030000000949949026 -0.0020000000949949026 -0.0020000000949949026 -0.0020000000474974513 -0.0010000000474974513 -0.0010000000474974513 -0.0010000000474974513 -0.0010000000949949026 -0.0020000000474974513 -0.0020000000474974513 -0.0020000000474974513 -0.0020000000474974513 -0.0010000000474974513 -0.0010000000474974513 -0.00000000004749745128457272 -0.0010000000474974513 -0.0020000000474974513 -0.0010000000474974513 -0.0020000000474974513 -0.0010000000474974513 0.001 -0.0020000000949949026 -0.0010000000949949026 -0.0030000000949949026 -0.0010000000474974513 -0.00000000004749745128457272 -0.0010000000474974513 -0.0010000000474974513 -0.0010000000474974513 -0.0030000000949949026 -0.0020000000949949026 -0.0030000000949949026 -0.0010000000474974513 0.0010000000949949026 0.0010000000949949026 0.0010000000949949026 0.0030000000949949026 0.0020000000949949026 0.004000000189989805 0.0020000000949949026 0.0020000000949949026 0.0020000000949949026 0.0030000000949949026 0.0010000000949949026 0.0 -0.004000000142492354 -0.0020000000474974513 -0.0010000000474974513 -0.00000000004749745128457272 -0.0010000000474974513 -0.0030000000949949026 -0.0030000000949949026 -0.0030000000949949026 -0.0020000000949949026 -0.0020000000474974513 -0.0020000000474974513 -0.0020000000474974513 -0.0010000000949949026 -0.00000000004749745128457272 -0.00000000004749745128457272 -0.0010000000474974513 -0.00000000004749745128457272 -0.0020000000474974513 -0.00000000004749745128457272 -0.0010000000474974513 -0.0010000000474974513 -0.0020000000474974513 -0.00000000004749745128457272 -0.00000000004749745128457272 -0.0010000000474974513 -0.00000000004749745128457272 -0.0010000000949949026 -0.0030000000949949026 -0.0010000000949949026 -0.00000000004749745128457272 -0.0010000000474974513 -0.0010000000474974513 -0.0020000000474974513 -0.00000000004749745128457272 -0.0010000000474974513 -0.0030000000949949026 -0.0020000000474974513 -0.00000000004749745128457272 0.0020000000949949026 0.0020000000949949026 0.0030000000949949026 0.0020000000949949026 0.0010000000949949026 0.002000000142492354 0.0020000000949949026 0.0030000000949949026 0.0020000000949949026 0.0010000000949949026 0.0020000000949949026 -0.001 -0.0020000000949949026 -0.0010000000474974513 -0.0010000000474974513 -0.00000000004749745128457272 -0.0010000000474974513 -0.0030000000949949026 -0.0020000000949949026 -0.0030000000949949026 -0.0020000000949949026 -0.0010000000949949026 -0.0020000000474974513 -0.0020000000474974513 -0.0010000000474974513 -0.0010000000949949026 -0.0020000000949949026 -0.0010000000474974513 -0.0020000000474974513 -0.0010000000474974513 -0.00000000004749745128457272 -0.0020000000474974513 0.001 -0.00000000004749745128457272 -0.00000000004749745128457272 -0.0010000000474974513 -0.0020000000474974513 -0.0030000000949949026 -0.0020000000949949026 -0.0010000000949949026 -0.0020000000474974513 -0.0020000000474974513 -0.00000000004749745128457272 -0.00000000004749745128457272 -0.0010000000474974513 -0.00000000004749745128457272 -0.0020000000474974513 -0.0010000000474974513 -0.0020000000474974513 -0.00000000004749745128457272 0.0030000000949949026 0.0020000000949949026 0.0010000000949949026 0.0020000000949949026 0.0020000000949949026 0.003000000142492354 0.0030000000949949026 0.0020000000949949026 0.0010000000949949026 0.0010000000949949026 0.0010000000949949026 0.0010000000474974513 -0.0020000000949949026 -0.0010000000474974513 -0.00000000004749745128457272 -0.00000000004749745128457272 -0.00000000004749745128457272 -0.0030000000949949026 -0.0020000000949949026 -0.0020000000949949026 -0.0020000000949949026 -0.0010000000949949026 -0.0010000000474974513 0.0 -0.00000000004749745128457272 -0.0020000000474974513 -0.00000000004749745128457272 -0.0010000000474974513 -0.001 0.001 0.001 0.001 0.001 -0.0010000000474974513 -0.0010000000474974513 -0.0010000000474974513 -0.0010000000474974513 -0.0020000000949949026 -0.0020000000949949026 -0.0030000000949949026 -0.00000000004749745128457272 -0.00000000004749745128457272 -0.00000000004749745128457272 -0.0020000000474974513 -0.0010000000474974513 -0.0010000000474974513 0.0 0.0 -0.0010000000474974513 -0.0010000000474974513 0.0020000000949949026 0.0010000000949949026 0.0010000000949949026 0.0020000000949949026 0.0010000000949949026 0.004000000142492354 0.0020000000949949026 0.0030000000949949026 0.0010000000949949026 0.0030000000949949026 0.0020000000949949026 0.0010000000474974513 -0.0010000000474974513 -0.00000000004749745128457272 -0.00000000004749745128457272 -0.0020000000474974513 -0.0020000000474974513 -0.0020000000474974513 -0.0020000000949949026 -0.0010000000949949026 -0.0020000000949949026 -0.0030000000949949026 -0.0010000000949949026 -0.0010000000474974513 -0.00000000004749745128457272 -0.0010000000474974513 -0.0010000000474974513 -0.0010000000474974513 -0.0010000000474974513 -0.0020000000474974513 0.001 -0.001 -0.00000000004749745128457272 -0.00000000004749745128457272 -0.0010000000474974513 -0.0010000000474974513 -0.0020000000949949026 -0.0010000000949949026 -0.0010000000949949026 -0.0020000000949949026 -0.0010000000474974513 -0.00000000004749745128457272 -0.0010000000474974513 -0.00000000004749745128457272 -0.0020000000474974513 -0.001 0.0 0.0 -0.0010000000474974513 -0.0010000000474974513 0.0030000000949949026 0.0020000000949949026 0.0020000000949949026 0.0020000000949949026 0.0030000000949949026 0.003000000142492354 0.0020000000949949026 0.0030000000949949026 0.0030000000949949026 0.0030000000949949026 0.0020000000949949026 0.00000000004749745128457272 -0.0020000000474974513 0.0 -0.00000000004749745128457272 -0.0020000000474974513 -0.0010000000474974513 -0.00000000004749745128457272 -0.0030000000949949026 -0.0010000000949949026 -0.0020000000949949026 -0.0030000000949949026 -0.0030000000949949026 -0.0020000000949949026 -0.0010000000474974513 -0.0020000000474974513 -0.0010000000474974513 -0.0020000000474974513 -0.0010000000474974513 -0.0010000000474974513 -0.0010000000474974513 -0.00000000004749745128457272 -0.0030000000949949026 -0.0020000000949949026 -0.0010000000949949026 -0.0010000000949949026 -0.0010000000949949026 -0.0010000000949949026 -0.0030000000949949026 -0.0030000000949949026 -0.0010000000474974513 -0.0010000000474974513 -0.00000000004749745128457272 -0.0020000000474974513 -0.0010000000474974513 0.0 0.0 0.0 0.0 -0.0010000000474974513 0.0010000000949949026 0.0020000000949949026 0.0020000000949949026 0.0010000000949949026 0.0020000000949949026 0.002000000142492354 0.0010000000949949026 0.0020000000949949026 0.0010000000949949026 0.0020000000949949026 0.0020000000949949026 0.0020000000474974513 -0.0020000000949949026 -0.0010000000474974513 -0.001 0.001 -0.0010000000474974513 -0.0010000000474974513 -0.0010000000474974513 -0.0010000000949949026 -0.0020000000949949026 -0.0030000000949949026 -0.0020000000949949026 -0.0030000000949949026 -0.0010000000474974513 -0.0010000000474974513 -0.00000000004749745128457272 -0.0010000000474974513 -0.00000000004749745128457272 -0.00000000004749745128457272 -0.00000000004749745128457272 -0.0020000000474974513 -0.0020000000949949026 -0.0020000000949949026 -0.0020000000949949026 -0.0020000000949949026 -0.003000000142492354 -0.0010000000949949026 -0.0020000000949949026 -0.0020000000949949026 -0.0010000000474974513 -0.0010000000474974513 -0.0010000000474974513 -0.0020000000474974513 0.0 -0.001 -0.001 -0.001 0.001 -0.0010000000474974513 0.0010000000474974513 0.0020000000949949026 0.0020000000949949026 0.0020000000949949026 0.0010000000949949026 0.0010000000949949026 0.0010000000949949026 0.0010000000949949026 0.0020000000949949026 0.0020000000949949026 0.0030000000949949026 0.0010000000949949026 -0.0020000000949949026 -0.0020000000474974513 -0.0010000000474974513 -0.0020000000474974513 -0.0010000000474974513 -0.0010000000474974513 -0.0020000000474974513 -0.0010000000474974513 -0.0020000000949949026 -0.0020000000949949026 -0.0020000000949949026 -0.0010000000949949026 -0.0020000000949949026 -0.00000000004749745128457272 -0.00000000004749745128457272 -0.00000000004749745128457272 -0.0020000000474974513 -0.0010000000474974513 -0.00000000004749745128457272 -0.0010000000474974513 -0.0020000000949949026 -0.0030000000949949026 -0.0020000000949949026 -0.003000000142492354 -0.002000000142492354 -0.0030000000949949026 -0.0030000000949949026 -0.0020000000949949026 -0.0010000000474974513 -0.0010000000474974513 -0.0010000000474974513 -0.0010000000474974513 0.0 0.001 0.0 -0.0020000000474974513 0.0 -0.00000000004749745128457272 0.0010000000474974513 0.0030000000949949026 0.0030000000949949026 0.0020000000949949026 0.0010000000949949026 0.0010000000949949026 0.0010000000949949026 0.0010000000949949026 0.0020000000949949026 0.0030000000949949026 0.0020000000949949026 0.0030000000949949026 -0.0020000000949949026 -0.0020000000474974513 -0.0010000000474974513 -0.0010000000474974513 -0.0010000000474974513 -0.0010000000474974513 -0.0010000000474974513 -0.00000000004749745128457272 -0.00000000004749745128457272 -0.0020000000949949026 -0.0020000000949949026 -0.0020000000949949026 -0.0020000000949949026 -0.0010000000949949026 -0.00000000004749745128457272 -0.0010000000474974513 -0.0010000000474974513 -0.00000000004749745128457272 -0.00000000004749745128457272 -0.0010000000474974513 -0.0010000000949949026 -0.0030000000949949026 -0.0030000000949949026 -0.003000000142492354 -0.002000000142492354 -0.0030000000949949026 -0.0010000000949949026 -0.0020000000474974513 -0.00000000004749745128457272 -0.0020000000474974513 -0.0010000000474974513 -0.0010000000474974513 0.001 0.001 -0.001 -0.0010000000474974513 0.0 0.001 0.0020000000474974513 0.0020000000949949026 0.0030000000949949026 0.0020000000949949026 0.0030000000949949026 0.003000000142492354 0.0030000000949949026 0.0020000000949949026 0.0010000000949949026 0.0020000000949949026 0.0020000000949949026 0.0020000000949949026 -0.0010000000949949026 -0.0030000000949949026 -0.00000000004749745128457272 -0.0010000000474974513 -0.00000000004749745128457272 -0.0010000000474974513 -0.0020000000474974513 -0.0020000000474974513 -0.0020000000474974513 -0.0010000000474974513 -0.0010000000474974513 -0.0020000000949949026 -0.0030000000949949026 -0.0030000000949949026 -0.0030000000949949026 -0.0020000000474974513 -0.0010000000474974513 0.001 -0.0010000000474974513 -0.0010000000474974513 -0.0020000000949949026 -0.0010000000949949026 -0.0010000000949949026 -0.003000000142492354 -0.002000000142492354 -0.0030000000949949026 -0.0010000000949949026 -0.0010000000474974513 -0.00000000004749745128457272 -0.0010000000474974513 -0.0010000000474974513 -0.001 0.0 -0.001 0.0 -0.0010000000474974513 0.0 -0.0010000000474974513 -0.00000000004749745128457272 0.0020000000949949026 0.0010000000949949026 0.0020000000949949026 0.0020000000949949026 0.003000000142492354 0.003000000142492354 0.0020000000949949026 0.0030000000949949026 0.0030000000949949026 0.0020000000949949026 0.0020000000949949026 -0.0020000000949949026 -0.0020000000949949026 -0.00000000004749745128457272 -0.0020000000474974513 -0.0020000000474974513 -0.0030000000949949026 -0.00000000004749745128457272 -0.0020000000474974513 -0.00000000004749745128457272 -0.0020000000474974513 -0.0010000000474974513 -0.0020000000474974513 -0.0020000000949949026 -0.0020000000949949026 -0.0010000000949949026 -0.0020000000949949026 -0.0020000000474974513 -0.0020000000474974513 -0.00000000004749745128457272 -0.0010000000474974513 -0.0030000000949949026 -0.0020000000949949026 -0.0030000000949949026 -0.003000000142492354 -0.003000000142492354 -0.0010000000949949026 -0.0020000000949949026 -0.0010000000474974513 -0.0010000000474974513 -0.00000000004749745128457272 -0.0020000000474974513 0.001 0.0 0.001 -0.0010000000474974513 -0.00000000004749745128457272 -0.0010000000474974513 -0.00000000004749745128457272 -0.0020000000474974513 0.0030000000949949026 0.0020000000949949026 0.0030000000949949026 0.0010000000949949026 0.003000000142492354 0.003000000142492354 0.0020000000949949026 0.0020000000949949026 0.0020000000949949026 0.0020000000949949026 0.0020000000949949026 -0.0030000000949949026 -0.0020000000949949026 -0.0020000000949949026 -0.00000000004749745128457272 -0.00000000004749745128457272 -0.0010000000474974513 -0.0010000000949949026 -0.00000000004749745128457272 -0.0010000000474974513 -0.0010000000474974513 -0.0010000000474974513 -0.0010000000474974513 -0.0010000000474974513 -0.0020000000949949026 -0.0020000000949949026 -0.0030000000949949026 -0.0020000000949949026 -0.0020000000474974513 -0.00000000004749745128457272 -0.0020000000474974513 -0.0030000000949949026 -0.0020000000949949026 -0.003000000142492354 -0.002000000142492354 -0.0010000000949949026 -0.0020000000949949026 -0.0030000000949949026 -0.00000000004749745128457272 -0.0020000000474974513 -0.0020000000474974513 0.001 0.001 -0.001 -0.00000000004749745128457272 -0.00000000004749745128457272 -0.0020000000949949026 -0.0020000000474974513 -0.00000000004749745128457272 -0.00000000004749745128457272 0.0030000000949949026 0.0020000000949949026 0.0010000000949949026 0.002000000142492354 0.002000000142492354 0.002000000142492354 0.002000000142492354 0.0020000000949949026 0.0010000000949949026 0.0020000000949949026 0.0010000000949949026 -0.0030000000949949026 -0.0020000000949949026 -0.0020000000949949026 -0.0010000000949949026 -0.0010000000474974513 -0.0010000000474974513 -0.0020000000474974513 -0.0030000000949949026 -0.0020000000474974513 -0.0020000000474974513 -0.0020000000474974513 -0.0010000000474974513 -0.0020000000474974513 -0.0010000000474974513 -0.00000000004749745128457272 -0.0010000000474974513 -0.0020000000474974513 -0.0020000000474974513 -0.001 0.0 -0.00000000004749745128457272 -0.00000000004749745128457272 -0.0030000000949949026 -0.0020000000949949026 -0.0020000000949949026 -0.0020000000949949026 -0.0020000000949949026 -0.0020000000474974513 -0.0010000000474974513 -0.0010000000474974513 0.001 0.0 -0.0020000000474974513 -0.0010000000474974513 -0.0010000000949949026 -0.0010000000949949026 -0.0030000000949949026 -0.0010000000474974513 -0.0010000000474974513 0.0020000000949949026 0.0020000000949949026 0.0020000000949949026 0.003000000142492354 0.003000000142492354 0.004000000189989805 0.003000000142492354 0.002000000142492354 0.0020000000949949026 0.0020000000949949026 0.0 -0.0030000000949949026 -0.0020000000949949026 -0.0020000000949949026 -0.0020000000949949026 -0.0030000000949949026 -0.0010000000474974513 -0.0010000000474974513 -0.0020000000474974513 -0.0020000000949949026 -0.0020000000949949026 -0.0010000000474974513 -0.0010000000474974513 -0.0020000000474974513 -0.0010000000474974513 -0.0020000000474974513 -0.00000000004749745128457272 -0.0010000000474974513 -0.0020000000474974513 -0.0020000000474974513 0.001 -0.00000000004749745128457272 -0.0010000000949949026 -0.0030000000949949026 -0.0020000000949949026 -0.0020000000949949026 -0.0010000000949949026 -0.0010000000949949026 -0.00000000004749745128457272 -0.00000000004749745128457272 -0.00000000004749745128457272 0.001 -0.00000000004749745128457272 -0.00000000004749745128457272 -0.0010000000474974513 -0.0020000000949949026 -0.0020000000949949026 -0.0010000000949949026 -0.0010000000474974513 -0.0020000000474974513 0.0020000000949949026 0.0010000000949949026 0.0020000000949949026 0.003000000142492354 0.003000000142492354 0.005000000189989805 0.002000000142492354 0.004000000142492354 0.004000000142492354 0.0020000000949949026 0.0 -0.0020000000949949026 -0.0010000000949949026 -0.0030000000949949026 -0.0020000000949949026 -0.0020000000949949026 -0.0020000000949949026 -0.0010000000474974513 -0.0020000000474974513 -0.0010000000474974513 -0.0030000000949949026 -0.0020000000949949026 -0.0010000000474974513 -0.0020000000474974513 -0.00000000004749745128457272 -0.00000000004749745128457272 -0.0010000000474974513 -0.00000000004749745128457272 -0.00000000004749745128457272 -0.00000000004749745128457272 -0.001 -0.0010000000474974513 -0.0020000000949949026 -0.0030000000949949026 -0.0020000000949949026 -0.0010000000949949026 -0.0020000000949949026 -0.0020000000949949026 -0.00000000004749745128457272 -0.0020000000474974513 -0.0010000000949949026 -0.00000000004749745128457272 -0.0010000000474974513 -0.0010000000474974513 -0.0020000000949949026 -0.0020000000949949026 -0.0030000000949949026 -0.0020000000949949026 -0.00000000004749745128457272 -0.0010000000474974513 0.0010000000949949026 0.0020000000949949026 0.003000000142492354 0.003000000142492354 0.004000000142492354 0.005000000189989805 0.005000000189989805 0.003000000142492354 0.002000000142492354 0.004000000142492354 0.001 0.001 -0.0010000000474974513 -0.0020000000474974513 -0.0020000000474974513 -0.0020000000949949026 -0.0030000000949949026 -0.0010000000949949026 -0.0010000000949949026 -0.0010000000474974513 -0.00000000004749745128457272 -0.0010000000949949026 -0.0030000000949949026 -0.0010000000949949026 -0.00000000004749745128457272 -0.00000000004749745128457272 -0.0010000000474974513 -0.0020000000474974513 -0.0020000000474974513 -0.0020000000474974513 -0.0010000000474974513 -0.0030000000949949026 -0.0020000000949949026 -0.0020000000949949026 -0.0010000000949949026 -0.0020000000949949026 -0.0010000000949949026 -0.0020000000949949026 -0.0010000000949949026 -0.0020000000949949026 -0.0020000000474974513 -0.0020000000474974513 -0.0020000000949949026 -0.0030000000949949026 -0.0010000000949949026 -0.0010000000949949026 -0.0020000000949949026 -0.0020000000949949026 -0.0010000000474974513 -0.0020000000474974513 0.0010000000474974513 0.004000000142492354 0.002000000142492354 0.003000000189989805 0.003000000189989805 0.005000000189989805 0.004000000189989805 0.004000000189989805 0.004000000142492354 0.002000000142492354 0.0020000000474974513 0.0 -0.0010000000474974513 -0.0020000000474974513 -0.00000000004749745128457272 -0.0010000000474974513 -0.0020000000474974513 -0.0010000000474974513 -0.0010000000474974513 -0.0010000000474974513 -0.0010000000474974513 -0.0020000000949949026 -0.0020000000949949026 -0.0020000000949949026 -0.0020000000949949026 -0.0010000000949949026 -0.0020000000474974513 -0.0010000000474974513 -0.0020000000474974513 -0.0010000000474974513 -0.0010000000474974513 -0.0020000000949949026 -0.0010000000949949026 -0.0010000000949949026 -0.0020000000949949026 -0.0020000000949949026 -0.0010000000949949026 -0.0020000000949949026 -0.00000000004749745128457272 -0.0020000000949949026 -0.0020000000474974513 -0.0010000000474974513 -0.0020000000474974513 -0.0020000000474974513 -0.00000000004749745128457272 -0.0010000000474974513 -0.0010000000474974513 -0.0010000000474974513 -0.0010000000474974513 -0.0010000000474974513 0.0020000000949949026 0.002000000142492354 0.004000000189989805 0.004000000189989805 0.004000000189989805 0.004000000189989805 0.005000000189989805 0.003000000189989805 0.004000000142492354 0.002000000142492354 0.0020000000474974513 0.0010000000474974513 0.0010000000474974513 -0.001 0.001 0.0 0.0 0.0 0.001 -0.001 0.0 -0.00000000004749745128457272 -0.0010000000474974513 -0.0020000000949949026 -0.0020000000474974513 -0.0020000000474974513 -0.00000000004749745128457272 -0.0010000000474974513 0.0 -0.001 -0.0020000000474974513 -0.0020000000474974513 -0.0010000000474974513 -0.0020000000474974513 -0.0010000000474974513 -0.0020000000474974513 -0.0010000000949949026 -0.0020000000949949026 -0.0020000000949949026 -0.0020000000949949026 -0.0010000000474974513 -0.00000000004749745128457272 -0.00000000004749745128457272 -0.0010000000474974513 -0.0010000000474974513 -0.00000000004749745128457272 -0.0020000000474974513 -0.00000000004749745128457272 -0.0020000000474974513 0.001 0.003000000142492354 0.004000000142492354 0.003000000189989805 0.004000000189989805 0.004000000189989805 0.003000000189989805 0.004000000189989805 0.004000000189989805 0.004000000189989805 0.004000000142492354 0.004000000142492354 0.004000000142492354 0.002000000142492354 0.002000000142492354 0.0020000000949949026 0.0020000000949949026 0.0010000000949949026 0.0030000000949949026 0.0020000000949949026 0.0020000000949949026 0.0010000000949949026 0.0020000000949949026 0.0020000000949949026 0.0010000000474974513 0.00000000004749745128457272 0.0010000000474974513 0.0010000000474974513 0.0030000000949949026 0.0020000000949949026 0.0030000000949949026 0.0020000000949949026 0.0030000000949949026 0.0010000000474974513 0.0020000000474974513 0.0010000000474974513 0.0010000000474974513 0.00000000004749745128457272 0.00000000004749745128457272 0.0020000000474974513 0.004000000142492354 0.0020000000949949026 0.0030000000949949026 0.0020000000949949026 0.0020000000949949026 0.0020000000949949026 0.0030000000949949026 0.0020000000949949026 0.0020000000474974513 0.0010000000949949026 0.0020000000949949026 0.003000000142492354 0.005000000189989805 0.005000000189989805 0.004000000189989805 0.004000000189989805 0.004000000189989805 0.004000000189989805 0.004000000189989805 0.004000000189989805 0.003000000189989805 0.004000000142492354 0.002000000142492354 0.004000000142492354 0.002000000142492354 0.003000000142492354 0.0030000000949949026 0.0010000000949949026 0.0030000000949949026 0.0020000000949949026 0.0020000000949949026 0.0020000000949949026 0.0030000000949949026 0.0020000000949949026 0.0020000000949949026 0.0010000000474974513 0.0020000000474974513 0.00000000004749745128457272 0.0010000000474974513 0.00000000004749745128457272 0.0010000000474974513 0.0010000000474974513 0.0020000000474974513 0.0010000000474974513 0.0010000000474974513 0.0010000000474974513 0.0020000000474974513 0.0010000000474974513 0.0010000000474974513 0.0010000000474974513 0.0010000000949949026 0.0020000000949949026 0.0020000000949949026 0.0020000000949949026 0.0030000000949949026 0.0020000000949949026 0.0030000000949949026 0.0020000000949949026 0.0010000000949949026 0.003000000142492354 0.004000000142492354 0.005000000189989805 0.003000000189989805 0.003000000189989805 0.003000000189989805 0.004000000189989805 0.004000000189989805 0.004000000189989805 0.003000000189989805 0.004000000189989805 0.005000000189989805 0.004000000189989805 0.002000000142492354 0.004000000142492354 0.004000000142492354 0.003000000142492354 0.003000000142492354 0.002000000142492354 0.0020000000949949026 0.0020000000949949026 0.0020000000949949026 0.0030000000949949026 0.0020000000949949026 0.0010000000949949026 0.0010000000949949026 0.0020000000949949026 0.0010000000474974513 0.0010000000474974513 0.00000000004749745128457272 0.0010000000474974513 0.0020000000474974513 0.0020000000474974513 0.0020000000949949026 0.0020000000474974513 0.00000000004749745128457272 0.0010000000474974513 0.0010000000474974513 0.00000000004749745128457272 0.0010000000474974513 0.0020000000949949026 0.0010000000949949026 0.0020000000949949026 0.0010000000949949026 0.0020000000949949026 0.0020000000949949026 0.0010000000949949026 0.0020000000949949026 0.0020000000949949026 0.002000000142492354 0.004000000142492354 0.003000000189989805 0.004000000189989805 0.004000000189989805 0.004000000189989805 0.005000000189989805 0.005000000189989805 0.003000000142492354 0.005000000189989805 0.005000000189989805 0.004000000189989805 0.004000000189989805 0.004000000189989805 0.003000000189989805 0.005000000189989805 0.003000000142492354 0.002000000142492354 0.002000000142492354 0.004000000142492354 0.003000000142492354 0.0010000000949949026 0.0020000000949949026 0.0010000000949949026 0.0010000000949949026 0.0010000000949949026 0.0010000000949949026 0.0030000000949949026 0.0010000000474974513 0.0010000000474974513 0.0010000000474974513 0.00000000004749745128457272 0.0020000000474974513 0.00000000004749745128457272 0.0010000000474974513 0.0010000000474974513 0.0010000000474974513 0.0010000000474974513 0.0020000000474974513 0.0010000000474974513 0.0010000000474974513 0.0020000000949949026 0.0020000000949949026 0.0010000000949949026 0.0030000000949949026 0.0030000000949949026 0.0010000000949949026 0.004000000142492354 0.003000000142492354 0.003000000142492354 0.002000000142492354 0.004000000189989805 0.004000000189989805 0.005000000189989805 0.005000000189989805 0.005000000189989805 0.004000000189989805 0.004000000189989805 0.003000000142492354 0.003000000142492354 0.003000000142492354 0.003000000142492354 0.003000000142492354 0.002000000142492354 0.005000000189989805 0.004000000189989805 0.003000000189989805 0.004000000189989805 0.003000000142492354 0.002000000142492354 0.003000000142492354 0.003000000142492354 0.003000000142492354 0.0020000000949949026 0.0020000000949949026 0.0020000000949949026 0.0030000000949949026 0.0030000000949949026 0.0010000000949949026 0.0010000000474974513 0.0010000000474974513 0.00000000004749745128457272 0.0010000000474974513 0.00000000004749745128457272 0.0010000000474974513 0.0010000000474974513 0.0020000000474974513 0.0020000000474974513 0.0010000000474974513 0.00000000004749745128457272 0.0030000000949949026 0.0020000000949949026 0.0030000000949949026 0.0010000000949949026 0.0030000000949949026 0.0030000000949949026 0.002000000142492354 0.004000000142492354 0.002000000142492354 0.005000000189989805 0.003000000189989805 0.004000000189989805 0.004000000189989805 0.005000000189989805 0.003000000189989805 0.005000000189989805 0.003000000189989805 0.002000000142492354 0.0020000000474974513
0.004000000189989805 0.004000000189989805 0.003000000189989805 0.003000000189989805 0.004000000142492354 0.002000000142492354 0.003000000142492354 0.004000000142492354 0.002000000142492354 0.003000000142492354 0.002000000142492354 0.004000000142492354 0.0020000000949949026 0.0010000000949949026 0.0020000000949949026 0.0020000000949949026 0.0030000000949949026 0.0010000000949949026 0.0020000000949949026 0.0030000000949949026 0.0020000000474974513 0.0010000000474974513 0.0010000000474974513 0.0010000000474974513 0.003000000142492354 0.002000000142492354 0.002000000142492354 0.0020000000949949026 0.0030000000949949026 0.003000000142492354 0.003000000142492354 0.003000000142492354 0.002000000142492354 0.004000000142492354 0.003000000142492354 0.003000000142492354 0.004000000142492354 0.003000000142492354 0.004000000142492354 0.002000000142492354 0.003000000142492354 0.003000000142492354 0.002000000142492354 0.003000000142492354 0.003000000142492354 0.003000000142492354 0.0010000000949949026 0.0020000000949949026 0.003000000142492354 0.003000000142492354 0.004000000189989805 0.004000000189989805 0.003000000189989805 0.004000000142492354 0.003000000142492354 0.003000000142492354 0.003000000142492354 0.003000000142492354 0.003000000142492354 0.002000000142492354 0.0020000000949949026 0.0030000000949949026 0.0010000000949949026 0.0020000000949949026 0.0020000000949949026 0.0020000000949949026 0.0030000000949949026 0.0020000000949949026 0.0030000000949949026 0.0020000000949949026 0.0010000000474974513 0.0020000000474974513 0.0020000000474974513 0.0020000000474974513 0.0020000000949949026 0.003000000142492354 0.0020000000949949026 0.0010000000949949026 0.0030000000949949026 0.0010000000949949026 0.004000000142492354 0.003000000142492354 0.002000000142492354 0.003000000142492354 0.004000000189989805 0.004000000142492354 0.004000000142492354 0.003000000142492354 0.004000000142492354 0.0010000000949949026 0.0020000000949949026 0.0030000000949949026 0.0020000000949949026 0.0020000000949949026 0.0020000000949949026 0.0020000000949949026 0.0030000000949949026 0.0010000000474974513 0.0020000000949949026 0.004000000142492354 0.003000000189989805 0.004000000189989805 0.003000000142492354 0.003000000142492354 0.003000000142492354 0.002000000142492354 0.004000000142492354 0.002000000142492354 0.002000000142492354 0.0020000000949949026 0.0030000000949949026 0.0030000000949949026 0.0020000000949949026 0.0030000000949949026 0.0020000000949949026 0.0020000000949949026 0.0030000000949949026 0.0020000000949949026 0.0010000000949949026 0.0020000000474974513 0.00000000004749745128457272 0.0010000000474974513 0.00000000004749745128457272 0.0010000000474974513 0.0010000000474974513 0.00000000004749745128457272 0.0020000000949949026 0.0020000000949949026 0.0020000000949949026 0.0020000000949949026 0.0020000000949949026 0.0010000000949949026 0.002000000142492354 0.0020000000949949026 0.0030000000949949026 0.0030000000949949026 0.0010000000949949026 0.0030000000949949026 0.0030000000949949026 0.0010000000949949026 0.0030000000949949026 0.0030000000949949026 0.0020000000949949026 0.0020000000949949026 0.0010000000949949026 0.0010000000949949026 0.0020000000949949026 0.0010000000474974513 0.0020000000474974513 0.0020000000949949026 0.005000000189989805 0.004000000142492354 0.002000000142492354 0.003000000142492354 0.002000000142492354 0.002000000142492354 0.003000000142492354 0.0010000000949949026 0.0020000000949949026 0.0010000000949949026 0.0020000000949949026 0.0010000000949949026 0.0020000000949949026 0.0020000000949949026 0.0020000000949949026 0.0030000000949949026 0.0030000000949949026 0.0020000000949949026 0.0010000000474974513 0.0010000000474974513 0.00000000004749745128457272 0.00000000004749745128457272 0.00000000004749745128457272 0.0010000000474974513 0.0010000000474974513 0.00000000004749745128457272 0.0010000000949949026 0.0030000000949949026 0.0030000000949949026 0.0030000000949949026 0.00000000004749745128457272 0.0010000000474974513 0.00000000004749745128457272 0.0010000000949949026 0.0020000000949949026 0.0010000000949949026 0.0030000000949949026 0.0020000000949949026 0.0030000000949949026 0.0020000000949949026 0.0020000000949949026 0.0020000000949949026 0.0030000000949949026 0.0020000000949949026 0.0020000000949949026 0.00000000004749745128457272 0.0030000000949949026 0.0020000000474974513 0.0010000000474974513 0.0010000000474974513 0.003000000142492354 0.003000000142492354 0.002000000142492354 0.002000000142492354 0.004000000142492354 0.0020000000474974513 0.0 0.0 0.0030000000949949026 0.0010000000949949026 0.0020000000949949026 0.0020000000949949026 0.003000000142492354 0.004000000142492354 0.003000000142492354 0.004000000142492354 0.0010000000949949026 0.00000000004749745128457272 0.00000000004749745128457272 0.0010000000474974513 0.0010000000474974513 0.0010000000474974513 0.0010000000474974513 0.00000000004749745128457272 0.0020000000474974513 0.00000000004749745128457272 0.0010000000949949026 0.0010000000949949026 0.00000000004749745128457272 0.0010000000474974513 0.00000000004749745128457272 0.00000000004749745128457272 0.0010000000474974513 0.0010000000474974513 0.0020000000949949026 0.0030000000949949026 0.0020000000949949026 0.0020000000949949026 0.0020000000949949026 0.0020000000949949026 0.0030000000949949026 0.0030000000949949026 0.0010000000949949026 0.0020000000949949026 0.0010000000949949026 0.0010000000949949026 0.0020000000949949026 0.0020000000474974513 0.0010000000474974513 0.0020000000474974513 0.004000000142492354 0.003000000142492354 0.002000000142492354 0.003000000142492354 0.003000000142492354 -0.0020000000474974513 -0.0010000000474974513 -0.0020000000474974513 -0.0010000000474974513 -0.0020000000474974513 -0.0010000000474974513 0.001 0.0 0.0 -0.001 -0.001 -0.0010000000474974513 -0.0020000000949949026 -0.0020000000949949026 -0.0030000000949949026 -0.0010000000949949026 -0.0020000000949949026 -0.0020000000949949026 -0.0020000000949949026 -0.0010000000949949026 -0.0030000000949949026 -0.0020000000949949026 -0.0020000000949949026 -0.0020000000949949026 -0.0020000000949949026 -0.0010000000949949026 -0.0020000000949949026 -0.0030000000949949026 -0.0020000000949949026 0.001 0.0020000000949949026 0.0020000000949949026 0.0020000000949949026 0.0010000000949949026 0.0030000000949949026 0.0010000000949949026 0.00000000004749745128457272 0.0010000000474974513 0.0010000000474974513 0.0010000000474974513 0.0020000000949949026 0.0030000000949949026 0.0010000000474974513 0.0010000000474974513 0.0010000000474974513 0.004000000142492354 0.004000000142492354 0.004000000142492354 0.003000000142492354 0.001 -0.0010000000474974513 -0.00000000004749745128457272 -0.0020000000474974513 -0.0010000000474974513 0.0 -0.00000000004749745128457272 -0.0010000000474974513 0.0 0.001 0.0 0.001 -0.0010000000474974513 -0.0010000000474974513 -0.0020000000949949026 -0.0010000000949949026 -0.0010000000949949026 -0.0010000000949949026 -0.0030000000949949026 -0.0020000000949949026 -0.0020000000949949026 -0.0020000000949949026 -0.0030000000949949026 -0.0020000000949949026 -0.0010000000949949026 -0.0020000000949949026 -0.0030000000949949026 -0.0020000000949949026 -0.0030000000949949026 -0.00000000004749745128457272 -0.0010000000474974513 -0.0010000000474974513 -0.001 -0.001 0.0 0.0 0.0 -0.001 -0.0020000000474974513 0.0010000000474974513 0.0010000000474974513 0.0020000000949949026 0.0010000000949949026 0.0010000000474974513 0.0010000000474974513 0.0010000000474974513 0.002000000142492354 0.004000000142492354 0.003000000142492354 0.0020000000949949026 0.001 -0.00000000004749745128457272 -0.0030000000949949026 -0.0010000000949949026 -0.0010000000474974513 -0.0010000000474974513 -0.0010000000474974513 -0.0010000000474974513 -0.00000000004749745128457272 -0.0020000000474974513 -0.0020000000474974513 -0.0020000000949949026 -0.0020000000474974513 -0.00000000004749745128457272 -0.0020000000949949026 -0.003000000142492354 -0.003000000142492354 -0.003000000142492354 -0.003000000142492354 -0.004000000142492354 -0.003000000142492354 -0.003000000142492354 -0.003000000142492354 -0.003000000142492354 -0.003000000142492354 -0.003000000142492354 -0.004000000142492354 -0.0030000000949949026 -0.0010000000474974513 -0.0030000000949949026 -0.0010000000949949026 -0.0030000000949949026 -0.0030000000949949026 -0.0010000000474974513 -0.0020000000474974513 -0.00000000004749745128457272 0.001 0.001 0.0 0.0010000000474974513 0.0010000000474974513 0.0020000000949949026 0.0030000000949949026 0.0010000000474974513 0.0020000000474974513 0.0010000000474974513 0.004000000142492354 0.003000000142492354 0.003000000142492354 0.0030000000949949026 0.0020000000949949026 -0.0010000000474974513 -0.0010000000949949026 -0.0010000000474974513 -0.0010000000474974513 -0.00000000004749745128457272 -0.0010000000474974513 -0.00000000004749745128457272 -0.0010000000474974513 -0.0010000000474974513 -0.0010000000474974513 -0.0010000000474974513 -0.0010000000474974513 -0.0010000000474974513 -0.0020000000474974513 -0.003000000142492354 -0.003000000142492354 -0.003000000142492354 -0.003000000142492354 -0.003000000142492354 -0.0030000000949949026 -0.003000000142492354 -0.003000000142492354 -0.003000000142492354 -0.004000000142492354 -0.003000000142492354 -0.003000000142492354 -0.0030000000949949026 -0.0030000000949949026 -0.0030000000949949026 -0.0020000000949949026 -0.0030000000949949026 -0.0020000000949949026 -0.0030000000949949026 -0.00000000004749745128457272 -0.0010000000474974513 -0.001 0.0 -0.001 -0.0010000000474974513 0.00000000004749745128457272 0.0010000000949949026 0.0010000000949949026 0.00000000004749745128457272 0.0020000000474974513 0.00000000004749745128457272 0.003000000142492354 0.004000000142492354 0.0020000000949949026 0.0030000000949949026 0.0020000000949949026 -0.0010000000474974513 0.0 -0.00000000004749745128457272 -0.0020000000474974513 -0.0010000000474974513 -0.0010000000474974513 -0.0010000000474974513 -0.0010000000474974513 0.0 -0.0010000000474974513 -0.00000000004749745128457272 -0.00000000004749745128457272 -0.0010000000474974513 -0.0020000000474974513 -0.0030000000949949026 -0.003000000142492354 -0.002000000142492354 -0.004000000142492354 -0.0030000000949949026 -0.0030000000949949026 -0.0020000000949949026 -0.0010000000949949026 -0.003000000142492354 -0.003000000142492354 -0.002000000142492354 -0.003000000142492354 -0.0020000000949949026 -0.0030000000949949026 -0.0030000000949949026 -0.0030000000949949026 -0.0020000000949949026 -0.0020000000949949026 -0.0020000000474974513 -0.00000000004749745128457272 -0.001 0.0010000000474974513 0.0020000000474974513 -0.001 0.0010000000474974513 0.00000000004749745128457272 0.0020000000949949026 0.0020000000949949026 0.0010000000474974513 0.00000000004749745128457272 0.0010000000474974513 0.003000000142492354 0.004000000142492354 0.0030000000949949026 0.0010000000949949026 0.0020000000949949026 0.001 -0.001 -0.0010000000474974513 -0.0010000000474974513 -0.0010000000474974513 -0.00000000004749745128457272 0.0 -0.001 -0.0010000000474974513 -0.0020000000474974513 -0.0010000000474974513 -0.00000000004749745128457272 -0.0010000000474974513 -0.00000000004749745128457272 -0.00000000004749745128457272 -0.003000000142492354 -0.002000000142492354 -0.003000000142492354 -0.0030000000949949026 -0.0020000000949949026 -0.0030000000949949026 -0.0010000000949949026 -0.0030000000949949026 -0.0030000000949949026 -0.004000000142492354 -0.0020000000949949026 -0.0010000000949949026 -0.0020000000949949026 -0.0030000000949949026 -0.0010000000474974513 -0.0020000000474974513 -0.0020000000474974513 -0.00000000004749745128457272 -0.0010000000949949026 -0.00000000004749745128457272 0.0 0.0 -0.0010000000474974513 -0.0020000000474974513 0.0010000000474974513 0.00000000004749745128457272 0.0010000000474974513 -0.001 0.0 -0.001 0.003000000142492354 0.003000000142492354 0.0010000000949949026 0.0020000000949949026 0.0020000000949949026 -0.00000000004749745128457272 -0.00000000004749745128457272 -0.0020000000949949026 -0.0020000000949949026 -0.0030000000949949026 -0.0010000000474974513 -0.0010000000474974513 -0.0010000000474974513 -0.0010000000949949026 0.0 -0.00000000004749745128457272 -0.0010000000474974513 -0.0010000000474974513 -0.0010000000474974513 -0.0010000000474974513 -0.003000000142492354 -0.003000000142492354 -0.0030000000949949026 -0.0010000000949949026 -0.0010000000949949026 -0.0010000000949949026 -0.0020000000949949026 -0.0020000000949949026 -0.0010000000949949026 -0.0030000000949949026 -0.0020000000949949026 -0.0020000000949949026 -0.0010000000474974513 -0.00000000004749745128457272 -0.0020000000474974513 -0.0010000000474974513 -0.0030000000949949026 -0.0020000000949949026 -0.0020000000949949026 -0.0020000000949949026 0.0 0.0 -0.0010000000474974513 -0.0010000000474974513 0.0020000000474974513 0.0020000000474974513 0.0010000000474974513 -0.001 0.0 0.0 0.003000000142492354 0.0020000000949949026 0.00000000004749745128457272 0.0010000000474974513 0.0010000000474974513 -0.0010000000474974513 -0.0010000000474974513 -0.0030000000949949026 -0.0020000000949949026 -0.0010000000949949026 -0.00000000004749745128457272 -0.0020000000474974513 -0.0010000000949949026 -0.0020000000949949026 -0.0010000000949949026 -0.0010000000474974513 -0.0010000000474974513 -0.0010000000474974513 -0.0010000000474974513 -0.0010000000474974513 -0.004000000142492354 -0.0030000000949949026 -0.0030000000949949026 -0.0010000000949949026 -0.0020000000949949026 -0.0020000000949949026 -0.0020000000949949026 -0.0010000000949949026 -0.0020000000949949026 -0.0010000000474974513 0.001 -0.0010000000474974513 -0.00000000004749745128457272 -0.0010000000474974513 -0.0020000000949949026 -0.0010000000949949026 -0.0030000000949949026 -0.0010000000949949026 -0.0020000000949949026 -0.0020000000949949026 -0.0010000000474974513 0.0 -0.0010000000474974513 -0.0010000000474974513 0.0020000000474974513 0.0010000000474974513 0.0020000000474974513 0.0010000000474974513 -0.001 0.0 0.0020000000949949026 0.0010000000474974513 0.0020000000474974513 0.0010000000474974513 0.0010000000474974513 -0.0020000000474974513 -0.0020000000474974513 -0.0010000000474974513 -0.0020000000949949026 -0.0010000000474974513 -0.0010000000474974513 -0.0020000000949949026 -0.0020000000949949026 -0.0010000000949949026 -0.0010000000949949026 -0.0020000000949949026 -0.0020000000474974513 -0.0010000000474974513 -0.0010000000474974513 -0.0010000000474974513 -0.0020000000949949026 -0.0010000000949949026 -0.0010000000949949026 -0.0020000000949949026 -0.0020000000949949026 -0.0020000000949949026 -0.0030000000949949026 -0.0010000000949949026 -0.0020000000949949026 -0.001 0.0 0.0 -0.0020000000949949026 -0.0030000000949949026 -0.0020000000949949026 -0.0020000000949949026 -0.0020000000949949026 -0.0020000000949949026 -0.0030000000949949026 -0.0020000000949949026 -0.0010000000474974513 0.0 -0.00000000004749745128457272 -0.00000000004749745128457272 0.00000000004749745128457272 0.0010000000474974513 0.0010000000474974513 0.00000000004749745128457272 -0.001 0.0 0.0020000000949949026 0.0020000000474974513 0.0020000000474974513 0.00000000004749745128457272 0.0020000000949949026 0.001 -0.0010000000474974513 -0.0020000000474974513 -0.0020000000949949026 -0.0010000000474974513 -0.0020000000949949026 -0.0010000000949949026 -0.0020000000949949026 -0.0020000000949949026 -0.0010000000949949026 -0.0020000000949949026 -0.0020000000949949026 -0.00000000004749745128457272 -0.00000000004749745128457272 -0.0010000000474974513 -0.00000000004749745128457272 -0.0030000000949949026 -0.0030000000949949026 -0.0010000000949949026 -0.0020000000949949026 -0.0010000000949949026 -0.0030000000949949026 -0.0020000000949949026 -0.0020000000474974513 0.001 0.0 -0.00000000004749745128457272 -0.0030000000949949026 -0.0020000000949949026 -0.0020000000949949026 -0.0020000000949949026 -0.0020000000949949026 -0.0020000000949949026 -0.0030000000949949026 -0.0020000000949949026 -0.0020000000474974513 -0.0010000000474974513 -0.0010000000474974513 0.0 0.0010000000474974513 0.0010000000474974513 0.0020000000474974513 0.0010000000474974513 -0.001 0.0020000000474974513 0.0020000000949949026 0.0010000000474974513 0.0010000000474974513 0.00000000004749745128457272 0.0020000000949949026 0.0 -0.00000000004749745128457272 -0.0010000000474974513 -0.003000000142492354 -0.0020000000949949026 -0.0020000000949949026 -0.0030000000949949026 -0.0020000000949949026 -0.0020000000949949026 -0.0010000000949949026 -0.0030000000949949026 -0.0010000000949949026 -0.0010000000949949026 -0.0010000000949949026 -0.0010000000474974513 0.0 -0.0020000000949949026 -0.0020000000949949026 -0.0030000000949949026 -0.0010000000949949026 -0.0020000000949949026 -0.0030000000949949026 -0.0010000000474974513 -0.0010000000474974513 -0.00000000004749745128457272 -0.0010000000474974513 -0.0010000000474974513 -0.0010000000474974513 -0.0020000000949949026 -0.0030000000949949026 -0.0010000000949949026 -0.0020000000949949026 -0.0020000000949949026 -0.0030000000949949026 -0.0030000000949949026 -0.0010000000474974513 -0.0030000000949949026 -0.0030000000949949026 -0.0020000000949949026 0.0010000000474974513 0.0020000000474974513 0.0020000000474974513 0.0010000000474974513 0.001 0.0010000000474974513 0.0020000000949949026 0.0010000000474974513 0.0010000000474974513 0.0010000000474974513 0.00000000004749745128457272 0.0 -0.0020000000474974513 -0.0020000000949949026 -0.0010000000474974513 -0.0020000000949949026 -0.0010000000949949026 -0.0010000000949949026 -0.0010000000949949026 -0.0010000000949949026 -0.0010000000949949026 -0.0030000000949949026 -0.0010000000949949026 -0.0020000000949949026 -0.0010000000949949026 -0.00000000004749745128457272 0.001 -0.0010000000474974513 -0.0020000000474974513 -0.0020000000474974513 -0.0020000000474974513 -0.0020000000474974513 -0.0020000000474974513 -0.0010000000474974513 -0.0010000000949949026 -0.00000000004749745128457272 -0.0010000000474974513 -0.0010000000474974513 -0.0020000000474974513 -0.0010000000474974513 -0.0010000000949949026 -0.0010000000949949026 -0.0020000000949949026 -0.0020000000949949026 -0.0010000000949949026 -0.0020000000949949026 -0.0020000000949949026 -0.0030000000949949026 -0.0020000000949949026 -0.0020000000949949026 -0.0010000000474974513 0.0010000000474974513 0.0010000000474974513 0.0010000000474974513 0.0020000000474974513 0.0010000000474974513 0.0 0.0010000000474974513 0.0010000000474974513 0.0010000000474974513 0.0010000000474974513 0.0010000000949949026 -0.0020000000949949026 -0.0020000000949949026 -0.0010000000474974513 -0.0010000000949949026 -0.0030000000949949026 -0.0020000000949949026 -0.0020000000949949026 -0.0020000000949949026 -0.0020000000949949026 -0.0020000000949949026 -0.0020000000949949026 -0.0020000000949949026 -0.00000000004749745128457272 -0.0020000000474974513 0.0 0.0 -0.0020000000474974513 -0.0010000000474974513 -0.0010000000474974513 -0.0010000000474974513 -0.00000000004749745128457272 -0.0020000000949949026 -0.0020000000949949026 -0.00000000004749745128457272 -0.0010000000474974513 -0.0010000000474974513 -0.0010000000474974513 -0.0010000000474974513 -0.0020000000949949026 -0.0010000000949949026 -0.0020000000949949026 -0.0020000000949949026 -0.0020000000949949026 -0.0010000000949949026 -0.002000000142492354 -0.0030000000949949026 -0.0010000000474974513 -0.0020000000949949026 0.0 0.0010000000474974513 -0.001 0.0010000000474974513 0.0010000000474974513 0.0010000000474974513 -0.001 0.0010000000474974513 0.0020000000474974513 0.0010000000474974513 0.001 0.0010000000474974513 -0.0020000000949949026 -0.0030000000949949026 -0.0010000000474974513 -0.0020000000949949026 -0.0020000000949949026 -0.0010000000949949026 -0.0010000000949949026 -0.0020000000949949026 -0.0030000000949949026 -0.0020000000949949026 -0.0020000000949949026 -0.00000000004749745128457272 -0.00000000004749745128457272 -0.0020000000474974513 -0.0010000000474974513 0.001 -0.001 -0.0010000000474974513 -0.0010000000474974513 -0.0010000000474974513 -0.0020000000949949026 -0.0020000000949949026 -0.0020000000474974513 -0.00000000004749745128457272 -0.0010000000474974513 -0.0020000000474974513 -0.0020000000474974513 -0.00000000004749745128457272 -0.0010000000474974513 -0.0030000000949949026 -0.0030000000949949026 -0.0010000000949949026 -0.0010000000949949026 -0.0020000000949949026 -0.0020000000949949026 -0.00000000004749745128457272 -0.0030000000949949026 -0.0030000000949949026 -0.0010000000474974513 0.0030000000949949026 0.0010000000474974513 0.00000000004749745128457272 0.0010000000474974513 0.00000000004749745128457272 0.0 0.0020000000474974513 0.0010000000949949026 -0.001 0.0 0.0010000000474974513 -0.00000000004749745128457272 -0.0010000000474974513 0.0 -0.001 -0.0010000000474974513 -0.0020000000949949026 -0.0010000000949949026 -0.0030000000949949026 -0.0020000000949949026 -0.0020000000949949026 -0.0010000000474974513 -0.00000000004749745128457272 -0.00000000004749745128457272 -0.0010000000474974513 -0.0010000000474974513 -0.0010000000474974513 0.001 0.0 -0.001 -0.0020000000474974513 -0.0010000000474974513 -0.0010000000474974513 -0.0010000000474974513 -0.0010000000474974513 -0.0020000000474974513 -0.0020000000474974513 -0.0010000000474974513 -0.00000000004749745128457272 -0.0020000000474974513 -0.0010000000474974513 -0.0030000000949949026 -0.0020000000949949026 -0.0010000000474974513 -0.00000000004749745128457272 -0.0020000000949949026 -0.0010000000474974513 -0.0010000000949949026 -0.0030000000949949026 -0.00000000004749745128457272 0.0030000000949949026 0.0020000000474974513 0.00000000004749745128457272 0.0030000000949949026 0.00000000004749745128457272 0.001 0.0 -0.001 -0.001 0.0 0.0 -0.0010000000474974513 -0.00000000004749745128457272 -0.001 -0.001 -0.0010000000474974513 -0.0020000000474974513 -0.0010000000949949026 -0.0020000000949949026 -0.0020000000949949026 -0.0010000000474974513 -0.0010000000474974513 -0.00000000004749745128457272 -0.0020000000474974513 -0.0010000000474974513 -0.0020000000474974513 -0.0010000000474974513 -0.0010000000474974513 0.001 -0.0010000000474974513 -0.0020000000474974513 -0.0020000000474974513 -0.0010000000474974513 -0.00000000004749745128457272 -0.0010000000474974513 -0.0010000000474974513 -0.0020000000474974513 -0.0010000000474974513 -0.0010000000474974513 -0.0020000000474974513 -0.0010000000474974513 -0.0020000000474974513 -0.0010000000474974513 -0.0010000000474974513 -0.0020000000949949026 -0.0010000000474974513 -0.002000000142492354 -0.0020000000949949026 -0.0030000000949949026 -0.0010000000474974513 0.0010000000474974513 0.0020000000949949026 0.0020000000474974513 0.0020000000949949026 0.00000000004749745128457272 0.001 -0.0010000000474974513 -0.001 0.0 0.001 0.001 -0.0010000000474974513 -0.001 0.0 0.0 -0.00000000004749745128457272 -0.00000000004749745128457272 -0.00000000004749745128457272 -0.0020000000949949026 -0.0010000000474974513 -0.0010000000474974513 -0.00000000004749745128457272 -0.0010000000474974513 -0.0010000000474974513 -0.0010000000474974513 -0.0010000000474974513 -0.0020000000474974513 -0.00000000004749745128457272 -0.0020000000474974513 -0.00000000004749745128457272 -0.00000000004749745128457272 -0.0010000000474974513 -0.0010000000474974513 -0.0010000000474974513 -0.0010000000474974513 -0.00000000004749745128457272 -0.0020000000474974513 -0.0010000000474974513 -0.0020000000474974513 -0.0010000000474974513 0.0 -0.001 -0.0010000000474974513 -0.0020000000949949026 -0.0020000000949949026 -0.0030000000949949026 -0.002000000142492354 -0.0020000000949949026 -0.0010000000949949026 -0.0010000000474974513 0.0010000000474974513 0.0 0.0020000000949949026 0.0020000000949949026 0.0020000000949949026 -0.00000000004749745128457272 -0.0010000000474974513 -0.001 0.0 0.001 -0.00000000004749745128457272 -0.0030000000949949026 0.0 0.0 0.001 -0.0010000000474974513 -0.0020000000474974513 -0.001 0.0 0.0 -0.0010000000474974513 -0.0020000000474974513 -0.00000000004749745128457272 -0.0010000000474974513 -0.0010000000474974513 -0.00000000004749745128457272 -0.0010000000474974513 -0.0010000000474974513 -0.0010000000474974513 -0.0010000000474974513 -0.00000000004749745128457272 -0.0020000000474974513 -0.0010000000474974513 -0.0020000000474974513 -0.0020000000474974513 -0.0010000000474974513 -0.0010000000474974513 -0.0010000000474974513 -0.001 0.001 -0.001 0.0 0.0 -0.0010000000949949026 -0.0010000000949949026 -0.003000000142492354 -0.003000000142492354 -0.0020000000949949026 -0.0020000000949949026 -0.00000000004749745128457272 0.0010000000474974513 -0.001 0.0020000000474974513 0.0020000000949949026 0.003000000142492354 -0.00000000004749745128457272 -0.00000000004749745128457272 -0.0020000000474974513 -0.001 0.0 0.0 -0.003000000142492354 -0.0010000000474974513 0.001 0.001 -0.00000000004749745128457272 0.001 -0.001 0.001 0.0 -0.0010000000474974513 -0.0020000000474974513 -0.0010000000474974513 -0.0020000000474974513 -0.0020000000474974513 -0.0010000000474974513 -0.00000000004749745128457272 -0.0010000000474974513 -0.0020000000474974513 -0.00000000004749745128457272 -0.0010000000474974513 -0.0010000000474974513 -0.0010000000474974513 -0.0020000000474974513 -0.0010000000474974513 -0.0010000000474974513 -0.0010000000474974513 -0.001 0.0 0.0 -0.001 0.0 0.001 -0.0010000000949949026 -0.0020000000949949026 -0.002000000142492354 -0.003000000142492354 -0.0030000000949949026 -0.0020000000949949026 0.0010000000474974513 0.0 0.0 0.00000000004749745128457272 0.0010000000474974513 0.003000000142492354 -0.0020000000474974513 -0.0010000000474974513 -0.0010000000474974513 0.0 0.001 0.001 -0.002000000142492354 -0.0020000000474974513 0.0 -0.001 -0.001 -0.001 -0.001 0.0 0.0 0.0 -0.0010000000474974513 -0.0010000000474974513 -0.00000000004749745128457272 -0.0010000000474974513 -0.0020000000474974513 -0.0010000000474974513 -0.0020000000474974513 -0.0020000000474974513 -0.0010000000474974513 -0.0020000000474974513 -0.0020000000474974513 -0.0010000000474974513 -0.0010000000474974513 -0.00000000004749745128457272 -0.0010000000474974513 0.0 0.001 -0.001 0.0 0.0 0.0 -0.0020000000474974513 -0.0010000000474974513 -0.003000000142492354 -0.004000000142492354 -0.004000000142492354 -0.0030000000949949026 0.001 0.0010000000474974513 0.001 0.0020000000474974513 0.0020000000474974513 0.0020000000949949026 0.0030000000949949026 -0.0010000000474974513 -0.0010000000474974513 -0.0010000000474974513 -0.001 0.001 -0.001 -0.004000000142492354 -0.002000000142492354 0.0 0.0020000000474974513 0.001 0.0 0.0 0.0 0.0 -0.001 -0.0010000000474974513 -0.0010000000474974513 -0.0010000000474974513 -0.0020000000474974513 -0.0010000000474974513 -0.0020000000474974513 -0.0020000000474974513 -0.0010000000474974513 -0.0020000000474974513 -0.0020000000474974513 -0.0020000000474974513 -0.00000000004749745128457272 -0.0020000000474974513 -0.00000000004749745128457272 -0.001 0.001 0.0 0.001 0.001 -0.001 0.0 0.0 -0.0010000000474974513 -0.0020000000949949026 -0.004000000142492354 -0.004000000142492354 -0.0010000000474974513 0.0 0.001 0.0 0.0010000000474974513 0.00000000004749745128457272 0.0010000000949949026 0.0030000000949949026 -0.0010000000474974513 -0.001 -0.0010000000474974513 0.0 0.0 0.0 0.0 0.0 -0.001 0.00000000004749745128457272 0.0 -0.001 0.0 0.0 0.0 -0.0010000000474974513 -0.0020000000474974513 -0.0010000000474974513 -0.0010000000474974513 -0.00000000004749745128457272 -0.0010000000474974513 -0.00000000004749745128457272 -0.0010000000474974513 -0.0020000000474974513 -0.0010000000474974513 -0.0010000000474974513 -0.00000000004749745128457272 -0.0020000000474974513 -0.0010000000474974513 0.001 0.001 -0.001 -0.001 0.001 0.001 0.001 -0.00000000004749745128457272 -0.0010000000474974513 -0.0030000000949949026 -0.0030000000949949026 -0.0020000000949949026 -0.0010000000474974513 0.0010000000474974513 0.0020000000474974513 -0.001 0.0010000000474974513 0.0010000000474974513 0.0010000000949949026 0.0020000000949949026 0.0020000000949949026 0.0 -0.0010000000474974513 -0.00000000004749745128457272 0.0 0.0 -0.001 0.00000000004749745128457272 0.0010000000474974513 0.0010000000474974513 0.0020000000949949026 0.001 0.0 -0.001 -0.00000000004749745128457272 -0.0010000000474974513 -0.00000000004749745128457272 -0.00000000004749745128457272 -0.0010000000474974513 -0.00000000004749745128457272 -0.0010000000474974513 -0.00000000004749745128457272 -0.00000000004749745128457272 -0.0020000000474974513 -0.0010000000474974513 -0.0010000000474974513 -0.0010000000474974513 -0.0010000000474974513 -0.0010000000474974513 0.001 0.0 0.0 0.001 0.0 0.0 0.0 -0.0010000000474974513 -0.0010000000474974513 -0.00000000004749745128457272 -0.0030000000949949026 0.001 0.001 0.00000000004749745128457272 0.0010000000474974513 0.001 -0.001 0.0020000000474974513 0.00000000004749745128457272 0.0020000000949949026 0.0030000000949949026 0.0030000000949949026 0.0 -0.0020000000474974513 -0.0010000000474974513 -0.001 0.001 0.001 0.0010000000474974513 0.0010000000474974513 0.0 0.0020000000949949026 0.002000000142492354 0.0010000000474974513 0.0010000000474974513 -0.0020000000474974513 -0.0010000000474974513 -0.0010000000474974513 -0.00000000004749745128457272 -0.0010000000474974513 -0.00000000004749745128457272 -0.0020000000474974513 -0.00000000004749745128457272 -0.00000000004749745128457272 -0.00000000004749745128457272 -0.00000000004749745128457272 -0.0020000000474974513 -0.0010000000474974513 -0.0010000000474974513 -0.0010000000474974513 0.0 0.0 0.0 -0.001 0.001 0.0 0.0 -0.0010000000474974513 -0.00000000004749745128457272 -0.0010000000949949026 0.0 0.0 0.00000000004749745128457272 0.0030000000949949026 0.0020000000474974513 -0.001 0.0010000000474974513 0.0010000000474974513 0.0020000000949949026 0.0020000000949949026 0.0010000000949949026 0.0030000000949949026 0.0020000000949949026 -0.00000000004749745128457272 -0.0010000000474974513 0.001 -0.001 0.0 0.0020000000474974513 0.0020000000474974513 0.0 0.0010000000474974513 0.0010000000474974513 0.0030000000949949026 0.0010000000474974513 0.0010000000474974513 -0.0010000000474974513 -0.00000000004749745128457272 -0.0010000000474974513 -0.00000000004749745128457272 -0.0020000000474974513 -0.0010000000474974513 -0.0010000000474974513 -0.0010000000474974513 -0.0010000000474974513 -0.0020000000474974513 -0.0010000000474974513 -0.0010000000474974513 -0.0010000000474974513 -0.0020000000474974513 0.001 0.0 0.0 -0.001 -0.001 0.0 -0.0020000000474974513 -0.00000000004749745128457272 -0.0020000000949949026 0.001 0.0 0.0 0.00000000004749745128457272 0.0020000000949949026 -0.001 0.0 0.0010000000474974513 0.0010000000474974513 0.0030000000949949026 0.0010000000949949026 0.0020000000949949026 0.0030000000949949026 0.0030000000949949026 -0.001 -0.0020000000474974513 -0.001 0.0 -0.001 0.0010000000474974513 0.0010000000474974513 0.0010000000474974513 0.00000000004749745128457272 0.0010000000474974513 0.00000000004749745128457272 0.0020000000949949026 0.0020000000474974513 0.00000000004749745128457272 -0.0020000000474974513 -0.0020000000474974513 -0.0010000000474974513 -0.00000000004749745128457272 -0.0010000000474974513 -0.0010000000474974513 -0.0020000000474974513 -0.0010000000474974513 -0.0020000000474974513 -0.0020000000474974513 -0.0010000000474974513 -0.0010000000474974513 -0.0020000000474974513 -0.0010000000474974513 0.0 0.001 0.001 0.0 0.0 -0.0010000000474974513 -0.0020000000474974513 0.001 0.001 0.001 0.0010000000474974513 0.0020000000949949026 0.0020000000949949026 -0.00000000004749745128457272 0.0010000000474974513 0.00000000004749745128457272 0.0010000000949949026 0.0020000000949949026 0.0020000000949949026 0.0 0.001 0.0030000000949949026 0.0010000000474974513 0.0 -0.001 0.0 0.0 0.0020000000474974513 0.00000000004749745128457272 0.0010000000474974513 0.0010000000474974513 0.0020000000474974513 0.0010000000474974513 0.00000000004749745128457272 0.0030000000949949026 0.0010000000949949026 0.0010000000474974513 -0.00000000004749745128457272 -0.0020000000474974513 -0.0010000000474974513 -0.0010000000474974513 -0.0010000000474974513 -0.0020000000474974513 -0.0010000000474974513 -0.0020000000474974513 -0.00000000004749745128457272 -0.0010000000474974513 -0.0020000000474974513 -0.00000000004749745128457272 -0.0020000000474974513 -0.0010000000474974513 0.0 0.0 0.0 -0.0010000000474974513 -0.0020000000474974513 -0.0010000000949949026 -0.001 -0.001 0.00000000004749745128457272 0.0010000000949949026 0.0020000000949949026 0.0020000000474974513 0.0010000000474974513 0.0010000000474974513 0.0010000000474974513 0.0030000000949949026 0.0030000000949949026 -0.001 0.0 -0.0030000000949949026 -0.0010000000474974513 0.0020000000949949026 0.0 -0.00000000004749745128457272 0.001 -0.001 0.0010000000474974513 0.0010000000474974513 0.0010000000474974513 0.00000000004749745128457272 0.00000000004749745128457272 0.00000000004749745128457272 0.0020000000474974513 0.0010000000474974513 0.0020000000949949026 0.0010000000949949026 0.0010000000474974513 -0.00000000004749745128457272 -0.0010000000474974513 -0.0010000000474974513 -0.0020000000474974513 -0.0010000000474974513 -0.0010000000474974513 -0.0010000000474974513 -0.0020000000474974513 -0.00000000004749745128457272 -0.0020000000474974513 -0.0020000000474974513 -0.0010000000474974513 -0.0020000000474974513 -0.0010000000474974513 -0.0020000000474974513 0.001 -0.0010000000474974513 -0.0010000000949949026 0.001 0.0 0.0010000000474974513 0.0030000000949949026 0.0020000000949949026 0.0010000000474974513 0.0010000000474974513 0.0010000000474974513 0.00000000004749745128457272 0.0020000000949949026 0.0030000000949949026 0.0 0.0 -0.0010000000474974513 -0.0020000000949949026 -0.0010000000474974513 0.0 -0.0010000000474974513 -0.0010000000949949026 -0.0010000000474974513 0.001 0.0020000000474974513 0.0020000000474974513 0.0010000000474974513 0.0020000000474974513 0.0010000000474974513 0.0020000000474974513 0.0020000000474974513 0.00000000004749745128457272 0.0010000000474974513 0.0020000000949949026 0.0010000000949949026 0.0020000000474974513 -0.0010000000474974513 -0.001 0.001 -0.0010000000474974513 -0.00000000004749745128457272 -0.0010000000474974513 -0.0020000000474974513 -0.00000000004749745128457272 -0.0020000000474974513 -0.0010000000474974513 -0.0020000000474974513 -0.0020000000474974513 -0.0020000000474974513 -0.00000000004749745128457272 -0.0010000000949949026 -0.0020000000949949026 -0.0010000000474974513 0.0 0.0020000000474974513 0.0020000000949949026 0.0030000000949949026 0.0010000000474974513 0.0020000000474974513 0.0010000000949949026 0.00000000004749745128457272 0.0010000000949949026 0.0020000000949949026 0.001 0.0 -0.0010000000474974513 -0.0020000000949949026 0.0 -0.0020000000474974513 -0.001 -0.00000000004749745128457272 -0.0030000000949949026 -0.0010000000949949026 -0.004000000142492354 0.0020000000474974513 0.00000000004749745128457272 0.0010000000474974513 0.0010000000474974513 0.0010000000474974513 0.0020000000949949026 0.0020000000474974513 0.00000000004749745128457272 0.0010000000474974513 0.0010000000474974513 0.0030000000949949026 0.003000000142492354 0.0020000000949949026 0.0 0.0 0.001 -0.0010000000474974513 -0.0020000000474974513 -0.0020000000474974513 -0.0020000000474974513 -0.00000000004749745128457272 -0.0010000000474974513 -0.0010000000474974513 -0.00000000004749745128457272 -0.0020000000474974513 -0.0020000000949949026 -0.0020000000949949026 0.001 -0.0020000000474974513 0.0020000000474974513 0.0010000000474974513 0.00000000004749745128457272 0.0020000000474974513 0.00000000004749745128457272 0.0010000000474974513 0.0010000000949949026 0.0010000000474974513 -0.001 0.001 -0.001 -0.0010000000474974513 -0.0030000000949949026 -0.0020000000949949026 -0.001 -0.0010000000474974513 -0.0020000000474974513 -0.001 -0.0020000000474974513 -0.0020000000949949026 -0.0020000000949949026 -0.0010000000949949026 -0.0020000000474974513 0.0010000000474974513 0.0010000000474974513 0.0010000000474974513 0.0010000000474974513 0.0010000000474974513 0.0020000000474974513 0.0020000000474974513 0.0010000000949949026 0.0020000000949949026 0.003000000142492354 0.002000000142492354 0.0030000000949949026 -0.001 0.0 -0.001 -0.0010000000474974513 -0.0020000000474974513 -0.0010000000474974513 -0.0020000000474974513 -0.00000000004749745128457272 -0.0010000000474974513 -0.00000000004749745128457272 -0.0010000000949949026 -0.0020000000949949026 0.001 -0.0010000000474974513 0.0010000000474974513 0.0010000000474974513 0.0010000000474974513 0.0020000000474974513 0.00000000004749745128457272 0.0010000000474974513 0.0030000000949949026 0.0020000000949949026 0.0020000000949949026 0.001 0.001 -0.00000000004749745128457272 -0.0030000000949949026 -0.0030000000949949026 -0.00000000004749745128457272 -0.0010000000474974513 -0.00000000004749745128457272 -0.0020000000474974513 -0.0010000000474974513 -0.0020000000474974513 -0.0020000000474974513 -0.00000000004749745128457272 0.0 -0.0020000000474974513 0.0 0.0020000000949949026 0.0010000000949949026 0.0010000000949949026 0.0030000000949949026 0.0030000000949949026 0.0030000000949949026 0.0010000000949949026 0.0020000000949949026 0.0020000000949949026 0.002000000142492354 0.002000000142492354 0.0010000000949949026 0.0 0.0 0.001 -0.00000000004749745128457272 -0.0020000000474974513 -0.0010000000474974513 -0.0010000000474974513 -0.0010000000474974513 -0.0020000000949949026 -0.0020000000949949026 0.0 0.001 0.0010000000474974513 0.00000000004749745128457272 0.0010000000474974513 0.00000000004749745128457272 0.0010000000474974513 0.0010000000474974513 0.0010000000474974513 0.0030000000949949026 0.003000000142492354 -0.001 0.0 -0.0010000000474974513 -0.00000000004749745128457272 -0.0020000000949949026 -0.0020000000474974513 -0.0020000000474974513 -0.0010000000474974513 -0.0010000000474974513 -0.0010000000474974513 -0.00000000004749745128457272 -0.0010000000474974513 -0.0010000000474974513 -0.0010000000474974513 -0.001 0.0 -0.0010000000474974513 0.001 0.0010000000949949026 0.0030000000949949026 0.0030000000949949026 0.002000000142492354 0.0020000000949949026 0.0010000000949949026 0.0020000000949949026 0.0020000000949949026 0.003000000142492354 0.002000000142492354 0.003000000142492354 0.0020000000949949026 0.0 0.0 0.0 -0.0010000000474974513 -0.0020000000474974513 -0.0010000000474974513 -0.0010000000474974513 -0.0030000000949949026 -0.0020000000949949026 0.001 0.0020000000474974513 0.0020000000474974513 0.0010000000474974513 0.0020000000474974513 0.0010000000474974513 0.0020000000474974513 0.0020000000474974513 0.0020000000949949026 0.0020000000949949026 0.0010000000474974513 0.001 -0.0010000000474974513 -0.0020000000474974513 -0.0030000000949949026 -0.00000000004749745128457272 -0.00000000004749745128457272 -0.0020000000474974513 -0.0010000000474974513 -0.0020000000474974513 -0.00000000004749745128457272 -0.0020000000474974513 -0.0020000000474974513 -0.00000000004749745128457272 -0.00000000004749745128457272 -0.001 0.0 0.001 -0.0010000000474974513 -0.0010000000474974513 0.0010000000949949026 0.0010000000949949026 0.0020000000949949026 0.004000000142492354 0.0010000000949949026 0.0030000000949949026 0.0020000000949949026 0.0010000000949949026 0.002000000142492354 0.003000000142492354 0.002000000142492354 0.0 0.0 0.001 0.0 -0.0010000000474974513 -0.0020000000474974513 -0.0020000000949949026 -0.0030000000949949026 0.0020000000474974513 0.0020000000949949026 0.00000000004749745128457272 0.00000000004749745128457272 0.00000000004749745128457272 0.0010000000474974513 0.0010000000474974513 0.00000000004749745128457272 0.0020000000949949026 0.0020000000949949026 0.0 0.0010000000474974513 -0.00000000004749745128457272 -0.0020000000949949026 -0.0020000000949949026 -0.0010000000474974513 -0.0010000000474974513 -0.0020000000474974513 -0.0020000000474974513 -0.0020000000474974513 -0.00000000004749745128457272 -0.0010000000474974513 -0.0010000000474974513 -0.0010000000474974513 -0.0010000000474974513 -0.0010000000474974513 -0.001 0.0 -0.001 0.001 -0.0010000000474974513 -0.0010000000474974513 0.0 0.0010000000949949026 0.0030000000949949026 0.003000000142492354 0.003000000142492354 0.0010000000949949026 0.0030000000949949026 0.0020000000949949026 0.003000000142492354 0.004000000142492354 0.003000000142492354 0.0 0.001 -0.001 0.001 0.001 -0.001 0.0020000000949949026 0.0010000000949949026 0.0010000000474974513 0.0020000000474974513 0.0010000000474974513 0.00000000004749745128457272 0.00000000004749745128457272 0.00000000004749745128457272 0.0030000000949949026 0.0030000000949949026 -0.001 0.00000000004749745128457272 0.0 -0.0010000000474974513 -0.0020000000949949026 -0.0020000000474974513 -0.0010000000474974513 -0.0010000000474974513 -0.00000000004749745128457272 -0.0010000000474974513 -0.00000000004749745128457272 -0.0020000000474974513 -0.0010000000474974513 -0.00000000004749745128457272 -0.0010000000474974513 -0.00000000004749745128457272 -0.0010000000474974513 0.001 0.001 0.0 0.0 0.001 -0.00000000004749745128457272 -0.0010000000474974513 0.0020000000949949026 0.0020000000949949026 0.0020000000949949026 0.0010000000949949026 0.002000000142492354 0.0020000000949949026 0.0010000000949949026 0.0010000000949949026 0.003000000142492354 0.003000000142492354 0.003000000142492354 0.0 0.001 -0.0010000000474974513 0.0010000000949949026 0.002000000142492354 0.002000000142492354 0.0030000000949949026 0.0010000000474974513 0.0010000000474974513 0.0010000000474974513 0.00000000004749745128457272 0.0020000000474974513 0.0020000000949949026 0.0020000000949949026 0.0 0.0 0.0 -0.0010000000474974513 -0.00000000004749745128457272 -0.0020000000474974513 -0.0010000000474974513 -0.0010000000474974513 -0.0010000000474974513 -0.0010000000474974513 -0.0020000000474974513 -0.0010000000474974513 -0.0010000000474974513 -0.0010000000474974513 -0.0020000000474974513 -0.0010000000474974513 -0.0020000000474974513 -0.0020000000474974513 -0.0010000000474974513 -0.001 0.001 -0.001 0.0 -0.0010000000474974513 -0.00000000004749745128457272 -0.00000000004749745128457272 0.0010000000949949026 0.0010000000949949026 0.0020000000949949026 0.0020000000949949026 0.003000000142492354 0.004000000142492354 0.0030000000949949026 0.0020000000949949026 0.003000000142492354 0.004000000142492354 0.0020000000949949026 0.0 0.0020000000949949026 0.002000000142492354 0.003000000142492354 0.004000000142492354 0.0010000000949949026 0.0020000000949949026 0.0010000000949949026 0.0010000000949949026 0.0010000000949949026 0.0010000000949949026 0.003000000142492354 0.003000000142492354 0.0010000000474974513 0.0 0.0 -0.001 0.0 -0.0020000000474974513 -0.0010000000474974513 -0.0020000000474974513 -0.0020000000474974513 -0.0010000000474974513 -0.0010000000474974513 -0.0010000000474974513 -0.00000000004749745128457272 -0.00000000004749745128457272 -0.0010000000474974513 -0.0020000000474974513 -0.0010000000474974513 -0.0020000000474974513 -0.0010000000474974513 -0.0020000000474974513 -0.0010000000474974513 -0.0020000000474974513 0.0 0.0 -0.00000000004749745128457272 -0.0020000000474974513 -0.0010000000474974513 0.0030000000949949026 0.0020000000949949026 0.0010000000949949026 0.0010000000949949026 0.0020000000949949026 0.004000000142492354 0.002000000142492354 0.0020000000949949026 0.002000000142492354 0.0030000000949949026 0.0020000000949949026 0.003000000142492354 0.002000000142492354 0.003000000142492354 0.0020000000949949026 0.0020000000949949026 0.0020000000949949026 0.0010000000949949026 0.0020000000949949026 0.0020000000949949026 0.003000000142492354 0.003000000142492354 0.00000000004749745128457272 -0.0020000000474974513 -0.001 0.001 0.001 0.001 -0.0010000000474974513 -0.0010000000474974513 -0.0010000000474974513 -0.0010000000474974513 -0.0010000000474974513 -0.0010000000474974513 -0.00000000004749745128457272 -0.0010000000474974513 -0.00000000004749745128457272 -0.0010000000474974513 -0.0010000000474974513 -0.0010000000474974513 -0.0010000000474974513 -0.0020000000474974513 -0.00000000004749745128457272 -0.0020000000474974513 -0.0020000000474974513 -0.0020000000474974513 -0.00000000004749745128457272 -0.0020000000474974513 -0.0030000000949949026 -0.0010000000949949026 -0.0010000000949949026 0.0030000000949949026 0.0030000000949949026 0.0020000000949949026 0.0010000000949949026 0.0030000000949949026 0.004000000142492354 0.003000000142492354 0.0020000000949949026 0.0020000000949949026 0.003000000142492354 0.002000000142492354 0.004000000142492354 0.0010000000949949026 0.0020000000949949026 0.0030000000949949026 0.0020000000949949026 0.0010000000949949026 0.0010000000474974513 0.0010000000474974513 0.0020000000949949026 0.0 -0.0020000000949949026 -0.00000000004749745128457272 -0.0010000000474974513 -0.0020000000474974513 -0.00000000004749745128457272 -0.0010000000474974513 -0.0010000000474974513 -0.00000000004749745128457272 -0.0020000000474974513 -0.0010000000474974513 -0.0010000000474974513 -0.0020000000474974513 -0.0010000000474974513 -0.0020000000474974513 -0.0010000000474974513 -0.0020000000474974513 -0.00000000004749745128457272 -0.0020000000474974513 -0.0010000000474974513 -0.0010000000474974513 -0.00000000004749745128457272 -0.0020000000474974513 -0.0030000000949949026 -0.0010000000474974513 -0.0020000000474974513 -0.0020000000474974513 -0.0020000000474974513 -0.0020000000949949026 -0.0010000000949949026 -0.0010000000949949026 0.0020000000474974513 0.0020000000474974513 0.00000000004749745128457272 0.0010000000474974513 0.00000000004749745128457272 0.0010000000474974513 0.0010000000474974513 0.0010000000474974513 0.0010000000474974513 0.0010000000474974513 0.0010000000474974513 0.0010000000474974513 0.0010000000474974513 0.00000000004749745128457272 0.0010000000474974513 0.00000000004749745128457272 0.0010000000474974513 0.0020000000949949026 0.001 -0.0020000000949949026 -0.00000000004749745128457272 -0.0010000000474974513 -0.0020000000474974513 -0.0010000000474974513 -0.0010000000474974513 -0.0010000000474974513 -0.0010000000474974513 -0.0010000000474974513 -0.0010000000474974513 -0.0020000000474974513 -0.0020000000474974513 -0.0010000000474974513 -0.00000000004749745128457272 -0.0010000000474974513 -0.0010000000474974513 -0.0020000000474974513 -0.0010000000474974513 -0.0020000000474974513 -0.0010000000474974513 -0.00000000004749745128457272 -0.0010000000474974513 -0.00000000004749745128457272 -0.0010000000474974513 -0.0020000000949949026 -0.00000000004749745128457272 -0.0010000000474974513 -0.0010000000474974513 -0.0010000000474974513 -0.0020000000949949026 -0.0030000000949949026 -0.0010000000474974513 0.00000000004749745128457272 0.0010000000474974513 0.00000000004749745128457272 0.0020000000474974513 0.0020000000474974513 0.0020000000474974513 0.00000000004749745128457272 0.0010000000474974513 0.0010000000474974513 0.0010000000474974513 0.0020000000474974513 0.0020000000474974513 0.0010000000474974513 0.0020000000474974513 0.0010000000474974513 0.0020000000949949026 0.0 -0.0020000000949949026 -0.0010000000949949026 -0.0010000000474974513 -0.0020000000474974513 -0.0010000000474974513 -0.00000000004749745128457272 -0.0020000000474974513 -0.0010000000474974513 -0.0020000000474974513 -0.00000000004749745128457272 -0.0010000000474974513 -0.00000000004749745128457272 -0.00000000004749745128457272 -0.0010000000474974513 -0.0010000000474974513 -0.00000000004749745128457272 -0.0010000000474974513 -0.0020000000474974513 -0.0020000000474974513 -0.0020000000474974513 -0.00000000004749745128457272 -0.00000000004749745128457272 -0.0010000000474974513 -0.0020000000474974513 -0.0020000000474974513 -0.0020000000474974513 -0.0020000000949949026 -0.0010000000474974513 -0.0010000000474974513 -0.0010000000474974513 -0.0010000000474974513 -0.0030000000949949026 -0.0020000000949949026 -0.00000000004749745128457272 0.0010000000474974513 0.0010000000474974513 0.0010000000474974513 0.0010000000474974513 0.00000000004749745128457272 0.00000000004749745128457272 0.0010000000474974513 0.0010000000474974513 0.00000000004749745128457272 0.0010000000474974513 0.0010000000474974513 0.00000000004749745128457272 0.0010000000474974513 0.0020000000949949026 -0.0010000000949949026 -0.0020000000949949026 -0.0020000000949949026 -0.0010000000474974513 -0.0010000000474974513 -0.0010000000474974513 -0.0010000000474974513 -0.00000000004749745128457272 -0.0010000000474974513 -0.0010000000474974513 -0.00000000004749745128457272 -0.0010000000474974513 -0.0010000000474974513 -0.0010000000474974513 -0.0020000000474974513 -0.00000000004749745128457272 -0.00000000004749745128457272 -0.0010000000474974513 -0.0010000000474974513 -0.0020000000474974513 -0.0010000000474974513 -0.0010000000474974513 -0.0010000000474974513 -0.00000000004749745128457272 -0.00000000004749745128457272 -0.00000000004749745128457272 -0.0020000000474974513 -0.00000000004749745128457272 -0.0020000000474974513 -0.0010000000949949026 -0.0030000000949949026 -0.0010000000474974513 -0.00000000004749745128457272 -0.0010000000474974513 -0.0020000000949949026 -0.0020000000474974513 -0.0020000000474974513 0.0020000000474974513 0.00000000004749745128457272 0.0020000000474974513 0.0010000000949949026 0.0010000000474974513 0.0010000000474974513 0.0020000000474974513 0.00000000004749745128457272 0.0020000000474974513 0.0020000000474974513 0.00000000004749745128457272 0.0010000000474974513 -0.0020000000949949026 -0.0010000000949949026 -0.0020000000949949026 -0.0010000000474974513 -0.00000000004749745128457272 -0.0020000000474974513 -0.00000000004749745128457272 -0.0020000000474974513 -0.0020000000474974513 -0.00000000004749745128457272 -0.0010000000474974513 -0.0020000000474974513 -0.00000000004749745128457272 -0.0010000000474974513 -0.0020000000474974513 -0.0010000000474974513 -0.0010000000474974513 -0.0010000000474974513 0.001 -0.0010000000474974513 -0.0020000000474974513 -0.0010000000474974513 -0.0010000000474974513 -0.0020000000474974513 -0.0020000000474974513 -0.00000000004749745128457272 